tree
version=v4
num_class=1
num_tree_per_iteration=1
label_index=0
max_feature_idx=10
objective=regression
feature_names=area_(sq_ft) bedrooms bathrooms stories guestroom basement airconditioning parking prefarea furnishingstatus_semi-furnished furnishingstatus_unfurnished
feature_infos=[1650:16200] [1:6] [1:3] [1:4] [0:1] [0:1] [0:1] [0:3] [0:1] [0:1] [0:1]
tree_sizes=1525 1479 1399 1401 1477 1467 1480 1479 1565 1485 1483 1393 1477 1479 1406 1648 1402 1560 1561 1647 1405 1648 1566 1567 1565 1649 1485 1650 1564 1481 1564 1648 1560 1642 1484 1563 1475 1566 1568 1567 1473 1490 1556 1472 1569 1565 1472 1574 1564 1478 1574 1480 1569 1565 1479 1577 1565 1480 1574 1558 1478 1574 1479 1578 1554 1479 1570 1494 1478 1488 1404 1484 1486 1492 1475 1390 1480 1480 1390 1476 1375 1561 1477 1391 1563 1391 1402 1565 1476 1478 1477 1641 1551 1560 1394 1554 1553 1406 1566 1480 1637 1475 1481 1560 1564 1640 1480 1484 1641 1555 1487 1647 1637 1484 1562 1487 1648 1567 1565 1475 1564 1549 1472 1474 1550 1479 1474 1481 1471 1635 1478 1475 1478 1474 1551 1471 1401 1552 1406 1562 1406 1566 1571 1489 1405 1568 1638 1558 1484 1569 1401 1570 1483 1634 1566 1405 1572 1568 1471 1574 1468 1552 1396 1571 1574 1561 1560 1480 1563 1570 1564 1472 1563 1462 1571 1474 1577 1482 1566 1484 1571 1566 1566 1558 1570 1567 1570 1568 1564 1481 1401 1484 1564 1402 1480 1402 1480 1566 1398 1470 1400 1566 1559 1484 1477 1569 1479 1475 1567 1485 1560 1473 1567 1395 1566 1643 1567 1645 1476 1397 1479 1568 1472 1650 1481 1400 1476 1567 1476 1477 1474 1566 1480 1649 1476 1564 1559 1645 1482 1561 1463 1562 1571 1480 1474 1477 1567 1480 1478 1642 1556 1557 1483 1476 1650 1652 1481 1474 1477 1570 1482 1560 1647 1647 1477 1652 1565 1483 1649 1650 1480 1473 1487 1476 1652 1474 1646 1484 1478 1653 1478 1651 1645 1479 1554 1570 1473 1576 1472 1653 1483 1468 1636 1650 1553 1486 1475 1474 1575 1469

Tree=0
num_leaves=16
num_cat=0
split_feature=0 2 0 2 8 10 6 6 0 10 0 7 0 1 0
split_gain=3.72503e+14 1.33019e+14 5.84417e+13 3.82865e+13 3.60307e+13 2.89265e+13 2.60055e+13 2.40661e+13 1.47403e+13 8.74971e+12 3.97021e+12 3.44268e+12 2.49323e+12 2.38675e+12 3.28264e+11
threshold=5497.5000000000009 1.5000000000000002 4064.5000000000005 1.5000000000000002 1.0000000180025095e-35 1.0000000180025095e-35 1.0000000180025095e-35 1.0000000180025095e-35 3645.0000000000005 1.0000000180025095e-35 3135.0000000000005 1.0000000180025095e-35 4616.0000000000009 2.5000000000000004 3435.0000000000005
decision_type=2 2 2 2 2 2 2 2 2 2 2 2 2 2 2
left_child=2 4 5 9 7 8 -3 11 10 12 -1 -2 -4 -7 -15
right_child=1 6 3 -5 -6 13 -8 -9 -10 -11 -12 -13 -14 14 -16
leaf_value=4624978.0775064714 4629564.6540926751 4652776.1355584487 4632527.4571079286 4647260.8661988368 4649592.4318627026 4619174.7582407407 4665921.5972113293 4644551.1355881076 4636462.1903484175 4627531.5130694667 4629522.9457602715 4635361.8207446467 4637344.6541196471 4621938.7120450884 4623667.9874148481
leaf_weight=37 21 27 22 22 36 32 34 27 23 26 40 20 21 23 21
leaf_count=37 21 27 22 22 36 32 34 27 23 26 40 20 21 23 21
internal_value=4.63657e+06 4.64838e+06 4.62927e+06 4.63577e+06 4.6415e+06 4.6259e+06 4.6601e+06 4.63722e+06 4.62944e+06 4.63211e+06 4.62734e+06 4.63239e+06 4.63488e+06 4.62125e+06 4.62276e+06
internal_weight=0 165 267 91 104 176 61 68 100 69 77 41 43 76 44
internal_count=432 165 267 91 104 176 61 68 100 69 77 41 43 76 44
is_linear=0
shrinkage=1


Tree=1
num_leaves=16
num_cat=0
split_feature=0 2 0 2 8 10 6 6 0 10 0 7 0 1 0
split_gain=3.6509e+14 1.30372e+14 5.72787e+13 3.75246e+13 3.53137e+13 2.83509e+13 2.5488e+13 2.35872e+13 1.4447e+13 8.57559e+12 3.8912e+12 3.37417e+12 2.44361e+12 2.33925e+12 3.21731e+11
threshold=5497.5000000000009 1.5000000000000002 4064.5000000000005 1.5000000000000002 1.0000000180025095e-35 1.0000000180025095e-35 1.0000000180025095e-35 1.0000000180025095e-35 3645.0000000000005 1.0000000180025095e-35 3135.0000000000005 1.0000000180025095e-35 4616.0000000000009 2.5000000000000004 3435.0000000000005
decision_type=2 2 2 2 2 2 2 2 2 2 2 2 2 2 2
left_child=2 4 5 9 7 8 -3 11 10 12 -1 -2 -4 -7 -15
right_child=1 6 3 -5 -6 13 -8 -9 -10 -11 -12 -13 -14 14 -16
leaf_value=-11473.023999023439 -6932.3131250000006 16047.053421585648 -3999.1383327414774 10586.936878551136 12895.186929253472 -17218.310000000001 29061.061139705886 7904.3032414641211 -103.75244904891304 -8945.1227163461535 -6973.6045683593748 -1193.1182539062499 769.8868796502976 -14481.996073369566 -12770.013325892856
leaf_weight=37 21 27 22 22 36 32 34 27 23 26 40 20 21 23 21
leaf_count=37 21 27 22 22 36 32 34 27 23 26 40 20 21 23 21
internal_value=0 11694.2 -7226.77 -785.429 4886.56 -10557.2 23300.8 646.695 -7058.32 -4411.4 -9135.66 -4132.71 -1670.08 -15161.1 -13664.9
internal_weight=0 165 267 91 104 176 61 68 100 69 77 41 43 76 44
internal_count=432 165 267 91 104 176 61 68 100 69 77 41 43 76 44
is_linear=0
shrinkage=0.01


Tree=2
num_leaves=15
num_cat=0
split_feature=0 2 0 2 8 10 6 6 0 10 0 7 1 0
split_gain=3.57825e+14 1.27778e+14 5.61476e+13 3.61111e+13 3.4611e+13 2.84314e+13 2.49807e+13 2.31178e+13 1.34253e+13 8.85403e+12 3.81377e+12 3.30703e+12 2.2927e+12 3.15329e+11
threshold=5497.5000000000009 1.5000000000000002 4087.5000000000005 1.5000000000000002 1.0000000180025095e-35 1.0000000180025095e-35 1.0000000180025095e-35 1.0000000180025095e-35 3645.0000000000005 1.0000000180025095e-35 3135.0000000000005 1.0000000180025095e-35 2.5000000000000004 3435.0000000000005
decision_type=2 2 2 2 2 2 2 2 2 2 2 2 2 2
left_child=2 4 5 9 7 8 -3 11 10 -4 -1 -2 -7 -14
right_child=1 6 3 -5 -6 12 -8 -9 -10 -11 -12 -13 13 -15
leaf_value=-11358.293504803632 -6862.9901488095247 15886.582777054398 -1359.7359125976561 10481.067531960227 12766.23503689236 -17046.12744140625 28770.449632352942 7825.2602307581019 -733.39588942307694 -8855.6715624999997 -6903.8683984375002 -1181.1871328125001 -14337.176073369566 -12642.313303571429
leaf_weight=37 21 27 40 22 36 32 34 27 26 26 40 20 23 21
leaf_count=37 21 27 40 22 36 32 34 27 26 26 40 20 23 21
internal_value=0 11577.3 -7154.51 -614.243 4837.69 -10369.8 23067.8 640.228 -6946.41 -4312.68 -9044.31 -4091.38 -15009.5 -13528.3
internal_weight=0 165 267 88 104 179 61 68 103 66 77 41 76 44
internal_count=432 165 267 88 104 179 61 68 103 66 77 41 76 44
is_linear=0
shrinkage=0.01


Tree=3
num_leaves=15
num_cat=0
split_feature=0 2 0 2 8 10 6 6 0 10 0 7 1 0
split_gain=3.50704e+14 1.25235e+14 5.50303e+13 3.53925e+13 3.39222e+13 2.78656e+13 2.44836e+13 2.26577e+13 1.31581e+13 8.67784e+12 3.73787e+12 3.24122e+12 2.24707e+12 3.09054e+11
threshold=5497.5000000000009 1.5000000000000002 4087.5000000000005 1.5000000000000002 1.0000000180025095e-35 1.0000000180025095e-35 1.0000000180025095e-35 1.0000000180025095e-35 3645.0000000000005 1.0000000180025095e-35 3135.0000000000005 1.0000000180025095e-35 2.5000000000000004 3435.0000000000005
decision_type=2 2 2 2 2 2 2 2 2 2 2 2 2 2
left_child=2 4 5 9 7 8 -3 11 10 -4 -1 -2 -7 -14
right_child=1 6 3 -5 -6 12 -8 -9 -10 -11 -12 -13 13 -15
leaf_value=-11244.710753272804 -6794.3602120535716 15727.717109917536 -1346.1385126953123 10376.256878551138 12638.572523871528 -16875.665800781251 28482.746139705883 7747.0076851851854 -726.06181903545678 -8767.1151201923076 -6834.8299160156248 -1169.3750078124999 -14193.803817934782 -12515.889761904762
leaf_weight=37 21 27 40 22 36 32 34 27 26 26 40 20 23 21
leaf_count=37 21 27 40 22 36 32 34 27 26 26 40 20 23 21
internal_value=0 11461.5 -7082.96 -608.101 4789.31 -10266.1 22837.1 633.826 -6876.94 -4269.55 -8953.86 -4050.46 -14859.4 -13393
internal_weight=0 165 267 88 104 179 61 68 103 66 77 41 76 44
internal_count=432 165 267 88 104 179 61 68 103 66 77 41 76 44
is_linear=0
shrinkage=0.01


Tree=4
num_leaves=16
num_cat=0
split_feature=0 2 0 2 8 10 6 6 0 10 1 0 7 1 0
split_gain=3.43725e+14 1.22743e+14 5.39352e+13 3.46882e+13 3.32472e+13 2.73111e+13 2.39964e+13 2.22069e+13 1.28963e+13 8.50515e+12 3.74132e+12 4.51845e+12 3.17672e+12 2.20236e+12 3.02904e+11
threshold=5497.5000000000009 1.5000000000000002 4087.5000000000005 1.5000000000000002 1.0000000180025095e-35 1.0000000180025095e-35 1.0000000180025095e-35 1.0000000180025095e-35 3645.0000000000005 1.0000000180025095e-35 2.5000000000000004 3135.0000000000005 1.0000000180025095e-35 2.5000000000000004 3435.0000000000005
decision_type=2 2 2 2 2 2 2 2 2 2 2 2 2 2 2
left_child=2 4 5 9 7 8 -3 12 10 -4 -1 -12 -2 -7 -15
right_child=1 6 3 -5 -6 13 -8 -9 -10 -11 11 -13 -14 14 -16
leaf_value=-12241.862629925272 -6726.4166517857147 15570.439818793402 -1332.677184326172 10272.494034090909 12512.186937934028 -16706.909140625001 28197.91828125 7669.5376359953707 -718.80131460336531 -8679.4437905649047 -10013.020298177084 -4191.6480240885421 -1157.6813828125 -14051.866195652174 -12390.730855654763
leaf_weight=23 21 27 40 22 36 32 34 27 26 26 30 24 20 23 21
leaf_count=23 21 27 40 22 36 32 34 27 26 26 30 24 20 23 21
internal_value=0 11346.9 -7012.13 -602.02 4741.42 -10163.5 22608.7 627.487 -6808.17 -4226.86 -8864.32 -7425.74 -4009.96 -14710.8 -13259.1
internal_weight=0 165 267 88 104 179 61 68 103 66 77 54 41 76 44
internal_count=432 165 267 88 104 179 61 68 103 66 77 54 41 76 44
is_linear=0
shrinkage=0.01


Tree=5
num_leaves=16
num_cat=0
split_feature=0 2 0 2 8 10 6 6 0 10 1 0 7 1 0
split_gain=3.36885e+14 1.203e+14 5.28619e+13 3.39979e+13 3.25855e+13 2.67676e+13 2.35189e+13 2.17649e+13 1.26397e+13 8.3359e+12 3.66687e+12 4.42853e+12 3.1135e+12 2.15853e+12 2.96876e+11
threshold=5497.5000000000009 1.5000000000000002 4087.5000000000005 1.5000000000000002 1.0000000180025095e-35 1.0000000180025095e-35 1.0000000180025095e-35 1.0000000180025095e-35 3645.0000000000005 1.0000000180025095e-35 2.5000000000000004 3135.0000000000005 1.0000000180025095e-35 2.5000000000000004 3435.0000000000005
decision_type=2 2 2 2 2 2 2 2 2 2 2 2 2 2 2
left_child=2 4 5 9 7 8 -3 12 10 -4 -1 -12 -2 -7 -15
right_child=1 6 3 -5 -6 13 -8 -9 -10 -11 11 -13 -14 14 -16
leaf_value=-12119.44394021739 -6659.1525148809524 15414.735512876157 -1319.3503215332032 10169.769488636364 12387.065042317709 -16539.84 27915.938667279413 7592.8423300057875 -711.61316068209146 -8592.6491601562502 -9912.8901139322916 -4149.7316536458329 -1146.1047148437499 -13911.347228260869 -12266.823489583332
leaf_weight=23 21 27 40 22 36 32 34 27 26 26 30 24 20 23 21
leaf_count=23 21 27 40 22 36 32 34 27 26 26 30 24 20 23 21
internal_value=0 11233.4 -6942.01 -596 4694.01 -10061.8 22382.6 621.212 -6740.09 -4184.59 -8775.68 -7351.49 -3969.86 -14563.7 -13126.5
internal_weight=0 165 267 88 104 179 61 68 103 66 77 54 41 76 44
internal_count=432 165 267 88 104 179 61 68 103 66 77 54 41 76 44
is_linear=0
shrinkage=0.01


Tree=6
num_leaves=16
num_cat=0
split_feature=0 2 0 2 8 10 6 6 0 10 1 0 7 3 0
split_gain=3.30181e+14 1.17906e+14 5.18099e+13 3.33213e+13 3.19371e+13 2.62349e+13 2.30508e+13 2.13318e+13 1.23881e+13 8.17001e+12 3.5939e+12 4.34041e+12 3.05154e+12 2.11885e+12 9.25504e+11
threshold=5497.5000000000009 1.5000000000000002 4087.5000000000005 1.5000000000000002 1.0000000180025095e-35 1.0000000180025095e-35 1.0000000180025095e-35 1.0000000180025095e-35 3645.0000000000005 1.0000000180025095e-35 2.5000000000000004 3135.0000000000005 1.0000000180025095e-35 1.5000000000000002 3455.0000000000005
decision_type=2 2 2 2 2 2 2 2 2 2 2 2 2 2 2
left_child=2 4 5 9 7 8 -3 12 10 -4 -1 -12 -2 14 -7
right_child=1 6 3 -5 -6 13 -8 -9 -10 -11 11 -13 -14 -15 -16
leaf_value=-11998.249833559783 -6592.5607142857152 15260.588237847223 -1306.1567592773438 10068.071370738637 12263.194485677082 -17383.724687500002 27636.779292279414 7516.9141257957172 -704.49709547776445 -8506.7227088341351 -9813.7614316406252 -4108.2342220052078 -1134.64353515625 -12350.458937500001 -14522.404350961539
leaf_weight=23 21 27 40 22 36 20 34 27 26 26 30 24 20 30 26
leaf_count=23 21 27 40 22 36 20 34 27 26 26 30 24 20 30 26
internal_value=0 11121.1 -6872.59 -590.04 4647.07 -9961.22 22158.8 615.001 -6672.69 -4142.74 -8687.92 -7277.97 -3930.16 -14418 -15766.5
internal_weight=0 165 267 88 104 179 61 68 103 66 77 54 41 76 46
internal_count=432 165 267 88 104 179 61 68 103 66 77 54 41 76 46
is_linear=0
shrinkage=0.01


Tree=7
num_leaves=16
num_cat=0
split_feature=0 2 6 8 9 6 6 0 5 0 0 7 7 0 0
split_gain=3.2361e+14 1.1556e+14 5.10206e+13 3.13015e+13 2.6679e+13 2.25921e+13 2.09073e+13 1.78343e+13 1.37528e+13 1.19916e+13 8.1697e+12 3.35936e+12 2.99082e+12 1.6847e+12 1.49532e+12
threshold=5497.5000000000009 1.5000000000000002 1.0000000180025095e-35 1.0000000180025095e-35 1.0000000180025095e-35 1.0000000180025095e-35 1.0000000180025095e-35 4355.0000000000009 1.0000000180025095e-35 3645.0000000000005 3865.0000000000005 1.0000000180025095e-35 1.0000000180025095e-35 3110.0000000000005 3182.5000000000005
decision_type=2 2 2 2 2 2 2 2 2 2 2 2 2 2 2
left_child=2 3 4 6 8 -3 12 -4 10 13 14 -11 -2 -6 -1
right_child=1 5 7 -5 9 -7 -8 -9 -10 11 -12 -13 -14 -15 -16
leaf_value=-18334.587635869564 -6526.6353273809527 15107.982128182872 -2991.0340945870535 12140.562466362848 -10665.07412109375 27360.411470588238 7441.7448144983364 9040.5339577414779 -6291.9506372070318 -3703.6738228665863 -10350.547740028784 1673.8328394717264 -1123.29721484375 -6804.6147340745192 -14969.326703629033
leaf_weight=23 21 27 28 36 20 34 27 22 32 26 38 21 20 26 31
leaf_count=23 21 27 28 36 20 34 27 22 32 26 38 21 20 26 31
internal_value=0 11009.9 -6803.86 4600.6 -8902.19 21937.2 608.85 2302.86 -11938.8 -4853.4 -13902.9 -1300.96 -3890.86 -8483.08 -16402.7
internal_weight=0 165 267 104 217 61 68 50 124 93 92 47 41 46 54
internal_count=432 165 267 104 217 61 68 50 124 93 92 47 41 46 54
is_linear=0
shrinkage=0.01


Tree=8
num_leaves=17
num_cat=0
split_feature=0 2 6 8 9 6 6 0 0 0 5 7 7 0 0 0
split_gain=3.1717e+14 1.1326e+14 5.00053e+13 3.06786e+13 2.61481e+13 2.21425e+13 2.04913e+13 1.74794e+13 1.3542e+13 1.1753e+13 7.07616e+12 3.29251e+12 2.9313e+12 2.28087e+12 1.65118e+12 2.66473e+10
threshold=5497.5000000000009 1.5000000000000002 1.0000000180025095e-35 1.0000000180025095e-35 1.0000000180025095e-35 1.0000000180025095e-35 1.0000000180025095e-35 4355.0000000000009 4043.0000000000005 3645.0000000000005 1.0000000180025095e-35 1.0000000180025095e-35 1.0000000180025095e-35 3182.5000000000005 3110.0000000000005 3632.5000000000005
decision_type=2 2 2 2 2 2 2 2 2 2 2 2 2 2 2 2
left_child=2 3 4 6 8 -3 12 -4 10 14 13 -11 -2 -1 -6 -15
right_child=1 5 7 -5 9 -7 -8 -9 -10 11 -12 -13 -14 15 -16 -17
leaf_value=-18151.241711956522 -6461.3690252976194 14956.902511574075 -2961.1238127790175 12019.156910264757 -10558.423132812501 27086.806829044115 7367.3273263888887 8950.1286008522729 -6652.5904009331598 -3666.6370703124999 -9166.0171930197012 1657.094613560268 -1112.06416015625 -14497.835976562501 -6736.5687710336542 -13993.494332386364
leaf_weight=23 21 27 28 36 20 34 27 22 36 26 23 21 20 20 26 22
leaf_count=23 21 27 28 36 20 34 27 22 36 26 23 21 20 20 26 22
internal_value=0 10899.8 -6735.82 4554.59 -8813.16 21717.8 602.762 2279.83 -11819.4 -4804.87 -13933.1 -1287.95 -3851.95 -15619.9 -8398.24 -14233.7
internal_weight=0 165 267 104 217 61 68 50 124 93 88 47 41 65 46 42
internal_count=432 165 267 104 217 61 68 50 124 93 88 47 41 65 46 42
is_linear=0
shrinkage=0.01


Tree=9
num_leaves=16
num_cat=0
split_feature=0 2 0 2 8 10 6 6 0 10 1 0 7 1 0
split_gain=3.10859e+14 1.11006e+14 4.90668e+13 3.22826e+13 3.00681e+13 2.51242e+13 2.17019e+13 2.00835e+13 1.17113e+13 7.78649e+12 3.48709e+12 4.10703e+12 2.87297e+12 2.07026e+12 2.86133e+11
threshold=5497.5000000000009 1.5000000000000002 4087.5000000000005 1.5000000000000002 1.0000000180025095e-35 1.0000000180025095e-35 1.0000000180025095e-35 1.0000000180025095e-35 3645.0000000000005 1.0000000180025095e-35 2.5000000000000004 3135.0000000000005 1.0000000180025095e-35 2.5000000000000004 3435.0000000000005
decision_type=2 2 2 2 2 2 2 2 2 2 2 2 2 2 2
left_child=2 4 5 9 7 8 -3 12 10 -4 -1 -12 -2 -7 -15
right_child=1 6 3 -5 -6 13 -8 -9 -10 -11 11 -13 -14 14 -16
leaf_value=-11676.224561820653 -6396.7552362351189 14807.333460648149 -1282.1755418701173 9936.1809161931833 11898.96522623698 -15971.015654296876 26815.939310661764 7293.6542075376155 -653.19999399038466 -8311.7047571739786 -9493.2960740559902 -3943.2782958984376 -1100.9435351562499 -13398.709809782609 -11784.214255952382
leaf_weight=23 21 27 40 22 36 32 34 27 26 26 30 24 20 23 21
leaf_count=23 21 27 40 22 36 32 34 27 26 26 30 24 20 23 21
internal_value=0 10790.8 -6668.47 -554.493 4509.05 -9674.22 21500.7 596.734 -6456.06 -4051.38 -8415.46 -7026.62 -3813.43 -14035.7 -12628.2
internal_weight=0 165 267 88 104 179 61 68 103 66 77 54 41 76 44
internal_count=432 165 267 88 104 179 61 68 103 66 77 54 41 76 44
is_linear=0
shrinkage=0.01


Tree=10
num_leaves=16
num_cat=0
split_feature=0 2 6 8 9 6 6 0 5 0 0 7 7 0 0
split_gain=3.04673e+14 1.08797e+14 4.86e+13 2.94698e+13 2.5171e+13 2.127e+13 1.96838e+13 1.68492e+13 1.32552e+13 1.12456e+13 7.66834e+12 3.22905e+12 2.81579e+12 1.59101e+12 1.43746e+12
threshold=5497.5000000000009 1.5000000000000002 1.0000000180025095e-35 1.0000000180025095e-35 1.0000000180025095e-35 1.0000000180025095e-35 1.0000000180025095e-35 4355.0000000000009 1.0000000180025095e-35 3645.0000000000005 3865.0000000000005 1.0000000180025095e-35 1.0000000180025095e-35 3110.0000000000005 3182.5000000000005
decision_type=2 2 2 2 2 2 2 2 2 2 2 2 2 2 2
left_child=2 3 4 6 8 -3 12 -4 10 13 14 -11 -2 -6 -1
right_child=1 5 7 -5 9 -7 -8 -9 -10 11 -12 -13 -14 -15 -16
leaf_value=-17843.534076086955 -6332.7877157738094 14659.25986111111 -2859.3257310267859 11779.975821736653 -10352.448812500001 26547.779549632352 7220.7174189814823 8835.2376704545459 -6055.5153369140626 -3632.5123391488883 -10085.883706773457 1639.6661165364585 -1089.9339687500001 -6600.8677989783655 -14544.022752016128
leaf_weight=23 21 27 28 36 20 34 27 22 32 26 38 21 20 26 31
leaf_count=23 21 27 28 36 20 34 27 22 32 26 38 21 20 26 31
internal_value=0 10682.9 -6601.78 4463.95 -8649.72 21285.6 590.767 2286.28 -11599.2 -4717.03 -13527.5 -1276.86 -3775.3 -8231.99 -15949.4
internal_weight=0 165 267 104 217 61 68 50 124 93 92 47 41 46 54
internal_count=432 165 267 104 217 61 68 50 124 93 92 47 41 46 54
is_linear=0
shrinkage=0.01


Tree=11
num_leaves=15
num_cat=0
split_feature=0 2 6 8 9 6 6 0 5 0 0 7 7 0
split_gain=2.9861e+14 1.06632e+14 4.76328e+13 2.88833e+13 2.46701e+13 2.08468e+13 1.92921e+13 1.65139e+13 1.29915e+13 1.10348e+13 7.51574e+12 3.11255e+12 2.75976e+12 1.40885e+12
threshold=5497.5000000000009 1.5000000000000002 1.0000000180025095e-35 1.0000000180025095e-35 1.0000000180025095e-35 1.0000000180025095e-35 1.0000000180025095e-35 4355.0000000000009 1.0000000180025095e-35 3505.0000000000005 3865.0000000000005 1.0000000180025095e-35 1.0000000180025095e-35 3182.5000000000005
decision_type=2 2 2 2 2 2 2 2 2 2 2 2 2 2
left_child=2 3 4 6 8 -3 12 -4 10 -6 13 -11 -2 -1
right_child=1 5 7 -5 9 -7 -8 -9 -10 11 -12 -13 -14 -15
leaf_value=-17665.098750000001 -6269.46 14512.667537615742 -2830.7324330357142 11662.175900065105 -9004.2491308593744 26282.301819852939 7148.5102141203706 8746.8852254971589 -5994.960180664063 -3925.178205233487 -9985.0242760587989 807.78400634765626 -1079.0349062500002 -14398.58252016129
leaf_weight=23 21 27 28 36 36 34 27 22 32 33 38 24 20 31
leaf_count=23 21 27 28 36 36 34 27 22 32 33 38 24 20 31
internal_value=0 10576.1 -6535.76 4419.31 -8563.23 21072.8 584.859 2263.42 -11483.2 -4669.86 -13392.2 -1932.35 -3737.55 -15789.9
internal_weight=0 165 267 104 217 61 68 50 124 93 92 57 41 54
internal_count=432 165 267 104 217 61 68 50 124 93 92 57 41 54
is_linear=0
shrinkage=0.01


Tree=12
num_leaves=16
num_cat=0
split_feature=0 2 6 8 9 6 6 0 5 0 0 7 7 0 0
split_gain=2.92667e+14 1.0451e+14 4.66849e+13 2.83085e+13 2.41792e+13 2.04319e+13 1.89082e+13 1.61853e+13 1.27329e+13 1.08375e+13 7.36618e+12 3.10766e+12 2.70484e+12 1.53843e+12 1.38082e+12
threshold=5497.5000000000009 1.5000000000000002 1.0000000180025095e-35 1.0000000180025095e-35 1.0000000180025095e-35 1.0000000180025095e-35 1.0000000180025095e-35 4355.0000000000009 1.0000000180025095e-35 3645.0000000000005 3865.0000000000005 1.0000000180025095e-35 1.0000000180025095e-35 3110.0000000000005 3182.5000000000005
decision_type=2 2 2 2 2 2 2 2 2 2 2 2 2 2 2
left_child=2 3 4 6 8 -3 12 -4 10 13 14 -11 -2 -6 -1
right_child=1 5 7 -5 9 -7 -8 -9 -10 11 -12 -13 -14 -15 -16
leaf_value=-17488.447771739131 -6206.7652306547625 14367.540749421298 -2802.4252413504469 11545.553900282117 -10158.881859375 26019.479200367648 7077.0251425057868 8659.4162082741477 -5935.0106646728518 -3556.9355110051083 -9885.1741359991775 1615.1915587797619 -1068.24425 -6469.8125773737975 -14254.596547379033
leaf_weight=23 21 27 28 36 20 34 27 22 32 26 38 21 20 26 31
leaf_count=23 21 27 28 36 20 34 27 22 32 26 38 21 20 26 31
internal_value=0 10470.3 -6470.41 4375.12 -8477.59 20862.1 579.011 2240.78 -11368.4 -4623.16 -13258.3 -1245.99 -3700.17 -8073.76 -15632
internal_weight=0 165 267 104 217 61 68 50 124 93 92 47 41 46 54
internal_count=432 165 267 104 217 61 68 50 124 93 92 47 41 46 54
is_linear=0
shrinkage=0.01


Tree=13
num_leaves=16
num_cat=0
split_feature=0 2 0 2 8 10 6 6 0 10 1 0 7 1 0
split_gain=2.86843e+14 1.02431e+14 4.59401e+13 3.10471e+13 2.77452e+13 2.38408e+13 2.00253e+13 1.85319e+13 1.09046e+13 7.26378e+12 3.36926e+12 3.83161e+12 2.65101e+12 1.99836e+12 2.8026e+11
threshold=5497.5000000000009 1.5000000000000002 4087.5000000000005 1.5000000000000002 1.0000000180025095e-35 1.0000000180025095e-35 1.0000000180025095e-35 1.0000000180025095e-35 3645.0000000000005 1.0000000180025095e-35 2.5000000000000004 3135.0000000000005 1.0000000180025095e-35 2.5000000000000004 3435.0000000000005
decision_type=2 2 2 2 2 2 2 2 2 2 2 2 2 2 2
left_child=2 4 5 9 7 8 -3 12 10 -4 -1 -12 -2 -7 -15
right_child=1 6 3 -5 -6 13 -8 -9 -10 -11 11 -13 -14 14 -16
leaf_value=-11275.139782608696 -6144.6976432291667 14223.865092592594 -1244.421234375 9798.237365056817 11430.098527560765 -15464.140751953126 25759.284241727939 7006.2549117476856 -579.78537259615382 -8033.9011313100964 -9087.2939615885407 -3726.5970174153645 -1057.5621289062501 -12942.452092391304 -11344.611108630952
leaf_weight=23 21 27 40 22 36 32 34 27 26 26 30 24 20 23 21
leaf_count=23 21 27 40 22 36 32 34 27 26 26 30 24 20 23 21
internal_value=0 10365.6 -6405.7 -489.739 4331.37 -9314.11 20653.4 573.22 -6179.22 -3919.06 -8069.94 -6704.76 -3663.17 -13562.7 -12179.8
internal_weight=0 165 267 88 104 179 61 68 103 66 77 54 41 76 44
internal_count=432 165 267 88 104 179 61 68 103 66 77 54 41 76 44
is_linear=0
shrinkage=0.01


Tree=14
num_leaves=15
num_cat=0
split_feature=0 2 6 8 9 6 6 0 5 0 0 7 7 0
split_gain=2.81135e+14 1.00392e+14 4.53705e+13 2.71931e+13 2.32714e+13 1.96268e+13 1.81631e+13 1.55993e+13 1.24204e+13 1.04005e+13 7.08202e+12 2.98123e+12 2.59826e+12 1.35854e+12
threshold=5497.5000000000009 1.5000000000000002 1.0000000180025095e-35 1.0000000180025095e-35 1.0000000180025095e-35 1.0000000180025095e-35 1.0000000180025095e-35 4355.0000000000009 1.0000000180025095e-35 3505.0000000000005 3865.0000000000005 1.0000000180025095e-35 1.0000000180025095e-35 3182.5000000000005
decision_type=2 2 2 2 2 2 2 2 2 2 2 2 2 2
left_child=2 3 4 6 8 -3 12 -4 10 -6 13 -11 -2 -1
right_child=1 5 7 -5 9 -7 -8 -9 -10 11 -12 -13 -14 -15
leaf_value=-17191.839891304349 -6083.2504464285721 14081.626863425927 -2705.0435867745537 11315.797480468751 -8746.9541623263885 25501.691470588237 6936.1923723234959 8547.4170907315347 -5790.1053686523437 -3831.6593316465437 -9715.5333799342097 800.38111979166672 -1046.9863789062501 -13984.174329637097
leaf_weight=23 21 27 28 36 36 34 27 22 32 33 38 24 20 31
leaf_count=23 21 27 28 36 36 34 27 22 32 33 38 24 20 31
internal_value=0 10261.9 -6341.65 4288.06 -8320.37 20446.9 567.488 2246.04 -11156.4 -4538.99 -13023 -1881.33 -3626.54 -15350.4
internal_weight=0 165 267 104 217 61 68 50 124 93 92 57 41 54
internal_count=432 165 267 104 217 61 68 50 124 93 92 57 41 54
is_linear=0
shrinkage=0.01


Tree=15
num_leaves=18
num_cat=0
split_feature=0 2 8 10 6 6 0 5 10 1 0 7 0 0 7 0 1
split_gain=2.75653e+14 1.39299e+14 3.14009e+13 2.84325e+13 2.40236e+13 2.13094e+13 1.6046e+13 1.24075e+13 1.06349e+13 3.28749e+12 3.69893e+12 2.02838e+12 1.843e+12 1.76077e+12 1.38983e+12 9.3242e+11 3.46962e+11
threshold=4530.0000000000009 1.5000000000000002 1.0000000180025095e-35 1.0000000180025095e-35 1.0000000180025095e-35 1.0000000180025095e-35 3645.0000000000005 1.0000000180025095e-35 1.0000000180025095e-35 2.5000000000000004 3135.0000000000005 1.0000000180025095e-35 3455.0000000000005 6337.5000000000009 1.0000000180025095e-35 6680.0000000000009 2.5000000000000004
decision_type=2 2 2 2 2 2 2 2 2 2 2 2 2 2 2 2 2
left_child=3 2 5 6 -3 8 9 12 11 -1 -11 -2 -5 -6 -8 -4 -14
right_child=1 4 15 7 13 -7 14 -9 -10 10 -12 -13 16 -15 -16 -17 -18
leaf_value=-11072.885991847827 -3467.0881148097828 12359.683395833334 8023.2240204653526 -16899.349999999999 21948.148660714287 5468.3052267020093 -2172.7177801724138 -5711.0265029761904 -10064.902961309524 -8899.2311197916661 -3632.1645080566409 831.51637648809526 -14242.5096875 25996.370852272728 1118.9819539741848 10975.528480957031 -12466.503476562501
leaf_weight=23 23 30 23 22 21 35 29 21 21 30 24 21 22 22 23 20 22
leaf_count=23 23 30 23 22 21 35 29 21 21 30 24 21 22 22 23 20 22
internal_value=0 7988.02 2250.29 -7988.02 19227.7 -822.535 -5008.51 -12405.9 -4209.91 -7906.82 -6558.31 -1415.48 -14536.1 24019.3 -716.774 9396.39 -13354.5
internal_weight=0 216 143 216 73 100 129 87 65 77 54 44 66 43 52 43 44
internal_count=432 216 143 216 73 100 129 87 65 77 54 44 66 43 52 43 44
is_linear=0
shrinkage=0.01


Tree=16
num_leaves=15
num_cat=0
split_feature=0 2 6 8 9 6 6 0 5 0 0 7 7 0
split_gain=2.70592e+14 9.64524e+13 4.37435e+13 2.61665e+13 2.2402e+13 1.88231e+13 1.74902e+13 1.479e+13 1.19926e+13 9.99267e+12 6.79792e+12 2.88975e+12 2.49945e+12 1.32543e+12
threshold=5497.5000000000009 1.5000000000000002 1.0000000180025095e-35 1.0000000180025095e-35 1.0000000180025095e-35 1.0000000180025095e-35 1.0000000180025095e-35 4355.0000000000009 1.0000000180025095e-35 3505.0000000000005 3865.0000000000005 1.0000000180025095e-35 1.0000000180025095e-35 3182.5000000000005
decision_type=2 2 2 2 2 2 2 2 2 2 2 2 2 2
left_child=2 3 4 6 8 -3 12 -4 10 -6 13 -11 -2 -1
right_child=1 5 7 -5 9 -7 -8 -9 -10 11 -12 -13 -14 -15
leaf_value=-16880.342282608697 -5962.6126236979162 13817.213851273149 -2610.2385212053573 11106.005457823012 -8579.0850672743054 25000.999172794116 6812.1474153419786 8346.4428067294029 -5674.0034533691405 -3769.5929428932886 -9540.7955232319091 790.82560872395834 -1023.0388554687499 -13712.009440524194
leaf_weight=23 21 27 28 36 36 34 27 22 32 33 38 24 20 31
leaf_count=23 21 27 28 36 36 34 27 22 32 33 38 24 20 31
internal_value=0 10067.7 -6221.6 4212.2 -8164.53 20050.8 562.534 2210.7 -10947.1 -4454.45 -12781.2 -1849.42 -3553.06 -15061.5
internal_weight=0 165 267 104 217 61 68 50 124 93 92 57 41 54
internal_count=432 165 267 104 217 61 68 50 124 93 92 57 41 54
is_linear=0
shrinkage=0.01


Tree=17
num_leaves=17
num_cat=0
split_feature=0 2 6 8 9 6 6 0 0 0 5 7 7 0 0 0
split_gain=2.65207e+14 9.4533e+13 4.2873e+13 2.56458e+13 2.19562e+13 1.84485e+13 1.71422e+13 1.44957e+13 1.18193e+13 9.7973e+12 5.82446e+12 2.91334e+12 2.44971e+12 1.99748e+12 1.41899e+12 1.52845e+10
threshold=5497.5000000000009 1.5000000000000002 1.0000000180025095e-35 1.0000000180025095e-35 1.0000000180025095e-35 1.0000000180025095e-35 1.0000000180025095e-35 4355.0000000000009 4043.0000000000005 3645.0000000000005 1.0000000180025095e-35 1.0000000180025095e-35 1.0000000180025095e-35 3182.5000000000005 3110.0000000000005 3632.5000000000005
decision_type=2 2 2 2 2 2 2 2 2 2 2 2 2 2 2 2
left_child=2 3 4 6 8 -3 12 -4 10 14 13 -11 -2 -1 -6 -15
right_child=1 5 7 -5 9 -7 -8 -9 -10 11 -12 -13 -14 15 -16 -17
leaf_value=-16711.539347826088 -5902.9866378348215 13679.04142361111 -2584.1361785016743 10994.945469835071 -9693.2638457031244 24750.989177389703 6744.0257772714122 8262.9786991743604 -6010.6389051649303 -3436.4275863882212 -8487.352751358696 1571.3847274925595 -1012.8083203125 -13245.472921875 -6150.3026477989788 -12863.507254971591
leaf_weight=23 21 27 28 36 20 34 27 22 36 26 23 21 20 20 26 22
leaf_count=23 21 27 28 36 20 34 27 22 36 26 23 21 20 20 26 22
internal_value=0 9967 -6159.38 4170.08 -8082.88 19850.3 556.909 2188.59 -10837.6 -4409.91 -12812.3 -1198.89 -3517.53 -14342.6 -7690.72 -13045.4
internal_weight=0 165 267 104 217 61 68 50 124 93 88 47 41 65 46 42
internal_count=432 165 267 104 217 61 68 50 124 93 88 47 41 65 46 42
is_linear=0
shrinkage=0.01


Tree=18
num_leaves=17
num_cat=0
split_feature=0 2 2 10 8 0 6 6 0 1 5 0 7 5 0 0
split_gain=2.5993e+14 9.26518e+13 4.24524e+13 2.52882e+13 2.51354e+13 2.01634e+13 1.80814e+13 1.6801e+13 1.5951e+13 1.14408e+13 9.15906e+12 3.46155e+12 2.40096e+12 1.30182e+12 1.10416e+12 4.04839e+11
threshold=5497.5000000000009 1.5000000000000002 1.5000000000000002 1.0000000180025095e-35 1.0000000180025095e-35 4087.5000000000005 1.0000000180025095e-35 1.0000000180025095e-35 3505.0000000000005 2.5000000000000004 1.0000000180025095e-35 4020.0000000000005 1.0000000180025095e-35 1.0000000180025095e-35 3455.0000000000005 4330.0000000000009
decision_type=2 2 2 2 2 2 2 2 2 2 2 2 2 2 2 2
left_child=2 4 3 8 7 -4 -3 12 13 -10 11 14 -2 -1 -5 -11
right_child=1 6 5 10 -6 -7 -8 -9 9 15 -12 -13 -14 -15 -16 -17
leaf_value=-10592.243696614583 -5843.956674107143 13542.251160300926 -3696.588297526042 -16448.239630681819 10884.996101345485 9557.3180113636372 24503.479177389705 6676.5856835937502 -7174.7301678240747 1863.8706609375001 -5755.7549843750003 -10017.85887784091 -1002.680322265625 -7345.9307194010416 -13538.012353515625 3.8887655362215909
leaf_weight=30 21 27 24 22 36 22 34 27 27 25 20 22 20 21 32 22
leaf_count=30 21 27 24 22 36 22 34 27 27 25 20 22 20 21 32 22
internal_value=0 9867.33 -6097.79 -7916.98 4128.37 2642.24 19651.8 551.34 -4952.54 -1986.96 -11776.9 -13361.5 -3482.36 -9255.53 -14723.7 993.241
internal_weight=0 165 267 221 104 46 61 68 125 74 96 76 41 51 54 47
internal_count=432 165 267 221 104 46 61 68 125 74 96 76 41 51 54 47
is_linear=0
shrinkage=0.01


Tree=19
num_leaves=18
num_cat=0
split_feature=0 2 8 10 6 6 0 5 10 1 0 0 0 0 7 0 1
split_gain=2.54985e+14 1.29177e+14 2.91653e+13 2.66199e+13 2.24391e+13 1.95773e+13 1.4868e+13 1.15986e+13 1.02154e+13 3.17564e+12 3.45832e+12 1.8636e+12 1.69549e+12 1.5528e+12 1.29924e+12 8.31808e+11 3.35657e+11
threshold=4530.0000000000009 1.5000000000000002 1.0000000180025095e-35 1.0000000180025095e-35 1.0000000180025095e-35 1.0000000180025095e-35 3645.0000000000005 1.0000000180025095e-35 1.0000000180025095e-35 2.5000000000000004 3135.0000000000005 6337.5000000000009 3455.0000000000005 6337.5000000000009 1.0000000180025095e-35 6680.0000000000009 2.5000000000000004
decision_type=2 2 2 2 2 2 2 2 2 2 2 2 2 2 2 2 2
left_child=3 2 5 6 -3 8 9 12 11 -1 -11 -2 -5 -6 -8 -4 -14
right_child=1 4 15 7 13 -7 14 -9 -10 10 -12 -13 16 -15 -16 -17 -18
leaf_value=-10701.378125000001 -3190.7646582031252 11868.663606770833 7747.4383789062504 -16283.757159090908 21192.207053571427 5225.7222318638396 -2076.2512257543103 -5484.4674999999997 -9789.160697544643 -8527.7671236979168 -3434.8890950520831 942.39006640624996 -13757.146164772726 24993.852716619316 1106.3550849184783 10535.913679687499 -12010.311827059659
leaf_weight=23 24 30 23 22 21 35 29 21 21 30 24 20 22 22 23 20 22
leaf_count=23 24 30 23 22 21 35 29 21 21 30 24 20 22 22 23 20 22
internal_value=0 7682.72 2157.39 -7682.72 18506.3 -804.026 -4799.75 -11957.5 -4050.81 -7589.64 -6264.27 -1312.06 -14017.1 23137.2 -668.56 9044.4 -12883.7
internal_weight=0 216 143 216 73 100 129 87 65 77 54 44 66 43 52 43 44
internal_count=432 216 143 216 73 100 129 87 65 77 54 44 66 43 52 43 44
is_linear=0
shrinkage=0.01


Tree=20
num_leaves=15
num_cat=0
split_feature=0 2 6 8 9 6 6 0 5 0 0 7 7 0
split_gain=2.50122e+14 8.90339e+13 4.09565e+13 2.41992e+13 2.07929e+13 1.73388e+13 1.6195e+13 1.35071e+13 1.12078e+13 9.2338e+12 6.24061e+12 2.74058e+12 2.32867e+12 1.25682e+12
threshold=5497.5000000000009 1.5000000000000002 1.0000000180025095e-35 1.0000000180025095e-35 1.0000000180025095e-35 1.0000000180025095e-35 1.0000000180025095e-35 4355.0000000000009 1.0000000180025095e-35 3505.0000000000005 3865.0000000000005 1.0000000180025095e-35 1.0000000180025095e-35 3182.5000000000005
decision_type=2 2 2 2 2 2 2 2 2 2 2 2 2 2
left_child=2 3 4 6 8 -3 12 -4 10 -6 13 -11 -2 -1
right_child=1 5 7 -5 9 -7 -8 -9 -10 11 -12 -13 -14 -15
leaf_value=-16271.476005434783 -5742.2498695591521 13288.141851851851 -2429.4810564313616 10683.180337456597 -8252.2326680755614 24021.922720588238 6557.5625980179393 8041.2011727627842 -5444.7940966796878 -3653.1057637902459 -9210.766641652961 788.05469726562501 -974.41441796875006 -13186.234755544356
leaf_weight=23 21 27 28 36 36 34 27 22 32 33 38 24 20 31
leaf_count=23 21 27 28 36 36 34 27 22 32 33 38 24 20 31
internal_value=0 9679.38 -5981.64 4053.59 -7861.66 19270.9 543.804 2177.62 -10542.4 -4287.31 -12315.5 -1783.14 -3416.48 -14500.3
internal_weight=0 165 267 104 217 61 68 50 124 93 92 57 41 54
internal_count=432 165 267 104 217 61 68 50 124 93 92 57 41 54
is_linear=0
shrinkage=0.01


Tree=21
num_leaves=18
num_cat=0
split_feature=0 2 8 10 6 6 0 5 10 1 0 0 0 0 7 0 1
split_gain=2.45151e+14 1.24356e+14 2.80748e+13 2.5768e+13 2.16263e+13 1.87321e+13 1.43349e+13 1.11952e+13 9.94558e+12 3.0987e+12 3.33858e+12 1.81789e+12 1.62889e+12 1.46702e+12 1.2487e+12 7.91386e+11 3.29868e+11
threshold=4530.0000000000009 1.5000000000000002 1.0000000180025095e-35 1.0000000180025095e-35 1.0000000180025095e-35 1.0000000180025095e-35 3645.0000000000005 1.0000000180025095e-35 1.0000000180025095e-35 2.5000000000000004 3135.0000000000005 6337.5000000000009 3455.0000000000005 6337.5000000000009 1.0000000180025095e-35 6680.0000000000009 2.5000000000000004
decision_type=2 2 2 2 2 2 2 2 2 2 2 2 2 2 2 2 2
left_child=3 2 5 6 -3 8 9 12 11 -1 -11 -2 -5 -6 -8 -4 -14
right_child=1 4 15 7 13 -7 14 -9 -10 10 -12 -13 16 -15 -16 -17 -18
leaf_value=-10509.87906929348 -3122.7568994140624 11636.486279947916 7603.8444055706523 -15984.092329545454 20808.554523809526 5104.4983217075896 -2020.2311126077586 -5379.4825297619054 -9631.6494773065479 -8350.8215872395831 -3346.8874892171225 959.39789477539057 -13517.368849431819 24503.695007102273 1099.8588994565218 10323.722701171875 -11785.663694069603
leaf_weight=23 24 30 23 22 21 35 29 21 21 30 24 20 22 22 23 20 22
leaf_count=23 24 30 23 22 21 35 29 21 21 30 24 20 22 22 23 20 22
internal_value=0 7533.12 2111.87 -7533.12 18152.8 -793.654 -4696.64 -11738.9 -3969.58 -7436.07 -6126.85 -1267.23 -13762.4 22699.1 -640.191 8868.9 -12651.5
internal_weight=0 216 143 216 73 100 129 87 65 77 54 44 66 43 52 43 44
internal_count=432 216 143 216 73 100 129 87 65 77 54 44 66 43 52 43 44
is_linear=0
shrinkage=0.01


Tree=22
num_leaves=17
num_cat=0
split_feature=0 2 2 10 8 0 6 6 0 1 5 0 7 5 0 0
split_gain=2.40686e+14 8.55562e+13 3.98852e+13 2.35096e+13 2.3298e+13 1.86479e+13 1.66259e+13 1.56121e+13 1.47941e+13 1.10281e+13 8.40264e+12 3.17396e+12 2.2585e+12 1.24339e+12 1.00997e+12 4.15834e+11
threshold=5497.5000000000009 1.5000000000000002 1.5000000000000002 1.0000000180025095e-35 1.0000000180025095e-35 4087.5000000000005 1.0000000180025095e-35 1.0000000180025095e-35 3505.0000000000005 2.5000000000000004 1.0000000180025095e-35 4020.0000000000005 1.0000000180025095e-35 1.0000000180025095e-35 3455.0000000000005 4330.0000000000009
decision_type=2 2 2 2 2 2 2 2 2 2 2 2 2 2 2 2
left_child=2 4 3 8 7 -4 -3 12 13 -10 11 14 -2 -1 -5 -11
right_child=1 6 5 10 -6 -7 -8 -9 9 15 -12 -13 -14 -15 -16 -17
leaf_value=-10223.137391276043 -5642.4112830171134 13038.895506365741 -3492.0333333333333 -15824.251463068182 10485.199536675347 9254.0465553977265 23549.708531709559 6440.9421827980332 -7010.0845891203708 1891.5717470703125 -5585.6068750000004 -9668.7831107954535 -946.95905664062502 -7050.5175079055061 -13040.921062927246 6.5023410866477276
leaf_weight=30 21 27 24 22 36 22 34 27 27 25 20 22 20 21 32 22
leaf_count=30 21 27 24 22 36 22 34 27 27 25 20 22 20 21 32 22
internal_value=0 9495.05 -5867.73 -7631.06 3980.22 2603.92 18897.4 536.406 -4772.76 -1916.76 -11352.8 -12870.5 -3351.95 -8916.76 -14174.9 1009.2
internal_weight=0 165 267 221 104 46 61 68 125 74 96 76 41 51 54 47
internal_count=432 165 267 221 104 46 61 68 125 74 96 76 41 51 54 47
is_linear=0
shrinkage=0.01


Tree=23
num_leaves=17
num_cat=0
split_feature=0 2 6 8 9 6 6 0 0 0 5 7 7 0 0 0
split_gain=2.35896e+14 8.38537e+13 3.9127e+13 2.28344e+13 1.96899e+13 1.62951e+13 1.53014e+13 1.25798e+13 1.06701e+13 8.71168e+12 5.02352e+12 2.74302e+12 2.21356e+12 1.8679e+12 1.27749e+12 1.106e+10
threshold=5497.5000000000009 1.5000000000000002 1.0000000180025095e-35 1.0000000180025095e-35 1.0000000180025095e-35 1.0000000180025095e-35 1.0000000180025095e-35 4355.0000000000009 4043.0000000000005 3645.0000000000005 1.0000000180025095e-35 1.0000000180025095e-35 1.0000000180025095e-35 3182.5000000000005 3110.0000000000005 3632.5000000000005
decision_type=2 2 2 2 2 2 2 2 2 2 2 2 2 2 2 2
left_child=2 3 4 6 8 -3 12 -4 10 14 13 -11 -2 -1 -6 -15
right_child=1 5 7 -5 9 -7 -8 -9 -10 11 -12 -13 -14 15 -16 -17
leaf_value=-15843.513885869566 -5585.987237723215 12908.506783854167 -2280.2633471679687 10380.347582465278 -9162.1304008789066 23314.211300982308 6376.5325860821758 7824.6386700994326 -5668.9788454861109 -3311.598686899039 -8114.9297656250001 1547.6315411086312 -937.48939062499994 -12468.479398437501 -5800.4489471905054 -12143.560017755681
leaf_weight=23 21 27 28 36 20 34 27 22 36 26 23 21 20 20 26 22
leaf_count=23 21 27 28 36 20 34 27 22 36 26 23 21 20 20 26 22
internal_value=0 9400.1 -5809.05 3940.42 -7646.59 18708.4 531.042 2165.89 -10255.3 -4168.34 -12131.5 -1140.45 -3318.43 -13552.7 -7262.05 -12298.3
internal_weight=0 165 267 104 217 61 68 50 124 93 88 47 41 65 46 42
internal_count=432 165 267 104 217 61 68 50 124 93 88 47 41 65 46 42
is_linear=0
shrinkage=0.01


Tree=24
num_leaves=17
num_cat=0
split_feature=0 2 2 10 8 0 6 6 0 1 5 0 7 5 0 0
split_gain=2.31202e+14 8.2185e+13 3.87689e+13 2.27535e+13 2.238e+13 1.80589e+13 1.59708e+13 1.49969e+13 1.42047e+13 1.07355e+13 8.10311e+12 3.03053e+12 2.16951e+12 1.19627e+12 9.71828e+11 4.23287e+11
threshold=5497.5000000000009 1.5000000000000002 1.5000000000000002 1.0000000180025095e-35 1.0000000180025095e-35 4087.5000000000005 1.0000000180025095e-35 1.0000000180025095e-35 3505.0000000000005 2.5000000000000004 1.0000000180025095e-35 4020.0000000000005 1.0000000180025095e-35 1.0000000180025095e-35 3455.0000000000005 4330.0000000000009
decision_type=2 2 2 2 2 2 2 2 2 2 2 2 2 2 2 2
left_child=2 4 3 8 7 -4 -3 12 13 -10 11 14 -2 -1 -5 -11
right_child=1 6 5 10 -6 -7 -8 -9 9 15 -12 -13 -14 -15 -16 -17
leaf_value=-10019.472779785156 -5530.1273311941968 12779.421503906251 -3397.6224755859375 -15533.739758522728 10276.544079861111 9145.5457670454543 23081.069024011951 6312.7673151765048 -6904.2557696759259 1898.1790349609375 -5487.3775156250003 -9512.7100284090902 -928.11442578125002 -6907.541794084822 -12803.472299194336 -3.7092649147727275
leaf_weight=30 21 27 24 22 36 22 34 27 27 25 20 22 20 21 32 22
leaf_count=30 21 27 24 22 36 22 34 27 27 25 20 22 20 21 32 22
internal_value=0 9306.1 -5750.96 -7489.44 3901.01 2601.28 18521.3 525.732 -4677.48 -1878.95 -11150.8 -12641.2 -3285.24 -8738.09 -13915.8 1007.93
internal_weight=0 165 267 221 104 46 61 68 125 74 96 76 41 51 54 47
internal_count=432 165 267 221 104 46 61 68 125 74 96 76 41 51 54 47
is_linear=0
shrinkage=0.01


Tree=25
num_leaves=18
num_cat=0
split_feature=0 2 8 10 6 6 0 5 10 1 0 0 0 0 7 0 1
split_gain=2.26887e+14 1.1511e+14 2.60797e+13 2.39415e+13 2.02549e+13 1.73044e+13 1.32297e+13 1.0403e+13 9.54107e+12 2.99077e+12 3.12466e+12 1.77715e+12 1.49263e+12 1.2943e+12 1.17982e+12 6.96979e+11 3.17258e+11
threshold=4530.0000000000009 1.5000000000000002 1.0000000180025095e-35 1.0000000180025095e-35 1.0000000180025095e-35 1.0000000180025095e-35 3645.0000000000005 1.0000000180025095e-35 1.0000000180025095e-35 2.5000000000000004 3135.0000000000005 6337.5000000000009 3455.0000000000005 6337.5000000000009 1.0000000180025095e-35 6680.0000000000009 2.5000000000000004
decision_type=2 2 2 2 2 2 2 2 2 2 2 2 2 2 2 2 2
left_child=3 2 5 6 -3 8 9 12 11 -1 -11 -2 -5 -6 -8 -4 -14
right_child=1 4 15 7 13 -7 14 -9 -10 10 -12 -13 16 -15 -16 -17 -18
leaf_value=-10164.495163043479 -3009.4185921223957 11158.063744140627 7356.5672843070652 -15378.402301136364 20088.393824404764 4899.7960968191965 -1957.4844989224139 -5170.7973586309527 -9367.3541462053563 -8010.0169072265626 -3169.0517120361328 1026.7402187500002 -13037.396420454546 23559.207736150565 1075.3352666440219 9909.0646835937496 -11339.112604758524
leaf_weight=23 24 30 23 22 21 35 29 21 21 30 24 20 22 22 23 20 22
leaf_count=23 24 30 23 22 21 35 29 21 21 30 24 20 22 22 23 20 22
internal_value=0 7247.08 2031.26 -7247.08 17464.4 -769.128 -4512.99 -11301.1 -3821.63 -7144.69 -5858.48 -1174.8 -13251.6 21864.2 -616.045 8543.78 -12188.3
internal_weight=0 216 143 216 73 100 129 87 65 77 54 44 66 43 52 43 44
internal_count=432 216 143 216 73 100 129 87 65 77 54 44 66 43 52 43 44
is_linear=0
shrinkage=0.01


Tree=26
num_leaves=16
num_cat=0
split_feature=0 2 6 8 9 6 6 0 5 0 0 7 7 0 0
split_gain=2.22476e+14 7.89744e+13 3.73848e+13 2.15465e+13 1.86445e+13 1.53118e+13 1.44581e+13 1.17134e+13 1.01086e+13 8.20176e+12 5.49738e+12 2.65893e+12 2.10372e+12 1.20794e+12 1.18091e+12
threshold=5497.5000000000009 1.5000000000000002 1.0000000180025095e-35 1.0000000180025095e-35 1.0000000180025095e-35 1.0000000180025095e-35 1.0000000180025095e-35 4355.0000000000009 1.0000000180025095e-35 3645.0000000000005 3865.0000000000005 1.0000000180025095e-35 1.0000000180025095e-35 3110.0000000000005 3182.5000000000005
decision_type=2 2 2 2 2 2 2 2 2 2 2 2 2 2 2
left_child=2 3 4 6 8 -3 12 -4 10 13 14 -11 -2 -6 -1
right_child=1 5 7 -5 9 -7 -8 -9 -10 11 -12 -13 -14 -15 -16
leaf_value=-15427.373206521739 -5433.9648865327381 12540.04679868345 -2136.337560599191 10086.032339409723 -8902.3414345703131 22626.916487821691 6200.6417129629626 7614.3843306107956 -5134.8566601562497 -3252.5792337740386 -8745.9543719161193 1531.5817420014882 -902.25847363281252 -5633.4578680889426 -12436.763016633065
leaf_weight=23 21 27 28 36 20 34 27 22 32 26 38 21 20 26 31
leaf_count=23 21 27 28 36 20 34 27 22 32 26 38 21 20 26 31
internal_value=0 9128.8 -5641.4 3830.35 -7437.56 18162.2 518.513 2153.98 -9976.06 -4052.91 -11660 -1114.98 -3223.38 -7054.71 -13710.5
internal_weight=0 165 267 104 217 61 68 50 124 93 92 47 41 46 54
internal_count=432 165 267 104 217 61 68 50 124 93 92 47 41 46 54
is_linear=0
shrinkage=0.01


Tree=27
num_leaves=18
num_cat=0
split_feature=0 2 8 10 6 6 0 5 10 1 0 0 0 3 7 0 1
split_gain=2.18122e+14 1.10823e+14 2.51079e+13 2.31793e+13 1.95246e+13 1.65581e+13 1.27314e+13 1.00408e+13 9.28737e+12 2.91743e+12 3.01011e+12 1.73564e+12 1.43363e+12 1.24714e+12 1.13082e+12 6.62553e+11 3.11696e+11
threshold=4530.0000000000009 1.5000000000000002 1.0000000180025095e-35 1.0000000180025095e-35 1.0000000180025095e-35 1.0000000180025095e-35 3645.0000000000005 1.0000000180025095e-35 1.0000000180025095e-35 2.5000000000000004 3135.0000000000005 6337.5000000000009 3455.0000000000005 2.5000000000000004 1.0000000180025095e-35 6680.0000000000009 2.5000000000000004
decision_type=2 2 2 2 2 2 2 2 2 2 2 2 2 2 2 2 2
left_child=3 2 5 6 -3 8 9 12 11 -1 -11 -2 -5 -6 -8 -4 -14
right_child=1 4 15 7 13 -7 14 -9 -10 10 -12 -13 16 -15 -16 -17 -18
leaf_value=-9979.7113111413055 -2947.3834033203125 10939.333634440105 7220.4527513586954 -15095.265397727273 23276.970507812501 4785.5602237723215 -1905.9277693965516 -5072.0243675595239 -9217.2179027157745 -7838.5471653645836 -3087.1424760437012 1041.3564511718751 -12810.472819602273 19862.583220108696 1063.2411761209239 9709.1137265625002 -11127.143540482954
leaf_weight=23 24 30 23 22 20 35 29 21 21 30 24 20 22 23 23 20 22
leaf_count=23 24 30 23 22 20 35 29 21 21 30 24 20 22 23 23 20 22
internal_value=0 7105.72 1987.94 -7105.72 17130.9 -759.77 -4415.49 -11094.7 -3745.72 -6997.16 -5726.81 -1134.32 -13011 21450.7 -592.642 8377.97 -11968.8
internal_weight=0 216 143 216 73 100 129 87 65 77 54 44 66 43 52 43 44
internal_count=432 216 143 216 73 100 129 87 65 77 54 44 66 43 52 43 44
is_linear=0
shrinkage=0.01


Tree=28
num_leaves=17
num_cat=0
split_feature=0 2 2 10 8 0 6 6 0 1 5 0 7 5 0 0
split_gain=2.14155e+14 7.59327e+13 3.63937e+13 2.11541e+13 2.07442e+13 1.66688e+13 1.47012e+13 1.39398e+13 1.3184e+13 1.03473e+13 7.43041e+12 2.7786e+12 2.03988e+12 1.14102e+12 8.88535e+11 4.35315e+11
threshold=5497.5000000000009 1.5000000000000002 1.5000000000000002 1.0000000180025095e-35 1.0000000180025095e-35 4087.5000000000005 1.0000000180025095e-35 1.0000000180025095e-35 3505.0000000000005 2.5000000000000004 1.0000000180025095e-35 4020.0000000000005 1.0000000180025095e-35 1.0000000180025095e-35 3455.0000000000005 4330.0000000000009
decision_type=2 2 2 2 2 2 2 2 2 2 2 2 2 2 2 2
left_child=2 4 3 8 7 -4 -3 12 13 -10 11 14 -2 -1 -5 -11
right_child=1 6 5 10 -6 -7 -8 -9 9 15 -12 -13 -14 -15 -16 -17
leaf_value=-9671.3781458333342 -5339.5620010230659 12305.25312789352 -3205.9329793294269 -14944.312585227273 9899.1416493055549 8844.8091406250005 22188.966631433825 6090.779757667824 -6745.4250057870377 1925.1736049804688 -5326.3451249999998 -9181.1535866477279 -877.14918847656259 -6632.1618805803573 -12333.66716430664 -3.5483700284090909
leaf_weight=30 21 27 24 22 36 22 34 27 27 25 20 22 20 21 32 22
leaf_count=30 21 27 24 22 36 22 34 27 27 25 20 22 20 21 32 22
internal_value=0 8956.44 -5534.88 -7219.26 3761.02 2557.47 17814.2 511.43 -4507.94 -1811.83 -10749.6 -12176.8 -3162.78 -8419.94 -13397.3 1022.37
internal_weight=0 165 267 221 104 46 61 68 125 74 96 76 41 51 54 47
internal_count=432 165 267 221 104 46 61 68 125 74 96 76 41 51 54 47
is_linear=0
shrinkage=0.01


Tree=29
num_leaves=16
num_cat=0
split_feature=0 2 6 8 9 6 6 0 0 0 5 7 7 0 0
split_gain=2.09893e+14 7.44216e+13 3.56834e+13 2.03314e+13 1.76533e+13 1.44087e+13 1.36624e+13 1.08749e+13 9.64115e+12 7.72191e+12 4.32111e+12 2.48434e+12 1.99929e+12 1.74895e+12 7.74873e+09
threshold=5497.5000000000009 1.5000000000000002 1.0000000180025095e-35 1.0000000180025095e-35 1.0000000180025095e-35 1.0000000180025095e-35 1.0000000180025095e-35 4355.0000000000009 4043.0000000000005 3505.0000000000005 1.0000000180025095e-35 1.0000000180025095e-35 1.0000000180025095e-35 3182.5000000000005 3632.5000000000005
decision_type=2 2 2 2 2 2 2 2 2 2 2 2 2 2 2
left_child=2 3 4 6 8 -3 12 -4 10 -6 13 -11 -2 -1 -15
right_child=1 5 7 -5 9 -7 -8 -9 -10 11 -12 -13 -14 14 -16
leaf_value=-15022.681875 -5286.1665848214288 12182.200441261575 -1997.5140750558037 9800.1502213541662 -7566.7165304904511 21967.07693474265 6029.8719690393518 7397.7138636363634 -5344.8771451822913 -3431.2907967862216 -7762.712122961957 797.15224039713553 -868.37775439453128 -11734.64541015625 -11462.68001953125
leaf_weight=23 21 27 28 36 36 34 27 22 36 33 23 24 20 20 22
leaf_count=23 21 27 28 36 36 34 27 22 36 33 23 24 20 20 22
internal_value=0 8866.88 -5479.53 3723.41 -7234.35 17636.1 506.316 2136.39 -9704.45 -3940.89 -11487.9 -1650.89 -3131.15 -12806.1 -11592.2
internal_weight=0 165 267 104 217 61 68 50 124 93 88 57 41 65 42
internal_count=432 165 267 104 217 61 68 50 124 93 88 57 41 65 42
is_linear=0
shrinkage=0.01


Tree=30
num_leaves=17
num_cat=0
split_feature=0 2 2 10 8 0 6 6 0 1 5 0 7 5 0 0
split_gain=2.05716e+14 7.29406e+13 3.53823e+13 2.04742e+13 1.99268e+13 1.61451e+13 1.41219e+13 1.33905e+13 1.26497e+13 1.00774e+13 7.16577e+12 2.65254e+12 1.9595e+12 1.09975e+12 8.54551e+11 4.39139e+11
threshold=5497.5000000000009 1.5000000000000002 1.5000000000000002 1.0000000180025095e-35 1.0000000180025095e-35 4087.5000000000005 1.0000000180025095e-35 1.0000000180025095e-35 3505.0000000000005 2.5000000000000004 1.0000000180025095e-35 4020.0000000000005 1.0000000180025095e-35 1.0000000180025095e-35 3455.0000000000005 4330.0000000000009
decision_type=2 2 2 2 2 2 2 2 2 2 2 2 2 2 2 2
left_child=2 4 3 8 7 -4 -3 12 13 -10 11 14 -2 -1 -5 -11
right_child=1 6 5 10 -6 -7 -8 -9 9 15 -12 -13 -14 -15 -16 -17
leaf_value=-9478.6594544270829 -5233.3049829101565 12060.378504050926 -3117.7793139648438 -14669.87734375 9702.1487196180551 8742.1742755681826 21747.40623161765 5969.5730020254632 -6646.0721759259259 1926.5163638183594 -5232.8874375000005 -9033.3426775568187 -859.69384667968757 -6494.9171010044647 -12109.643422851563 -10.656601562500001
leaf_weight=30 21 27 24 22 36 22 34 27 27 25 20 22 20 21 32 22
leaf_count=30 21 27 24 22 36 22 34 27 27 25 20 22 20 21 32 22
internal_value=0 8778.21 -5424.74 -7085.55 3686.18 2554.37 17459.7 501.253 -4418.15 -1777.24 -10558.7 -11960.3 -3099.84 -8250.06 -13152.7 1019.75
internal_weight=0 165 267 221 104 46 61 68 125 74 96 76 41 51 54 47
internal_count=432 165 267 221 104 46 61 68 125 74 96 76 41 51 54 47
is_linear=0
shrinkage=0.01


Tree=31
num_leaves=18
num_cat=0
split_feature=0 2 8 10 6 6 0 5 10 1 0 0 0 3 7 7 1
split_gain=2.01891e+14 1.0258e+14 2.3324e+13 2.15323e+13 1.82939e+13 1.52875e+13 1.17682e+13 9.33286e+12 8.91624e+12 2.81606e+12 2.82216e+12 1.69432e+12 1.31317e+12 1.3014e+12 1.07059e+12 5.89882e+11 2.99876e+11
threshold=4530.0000000000009 1.5000000000000002 1.0000000180025095e-35 1.0000000180025095e-35 1.0000000180025095e-35 1.0000000180025095e-35 3645.0000000000005 1.0000000180025095e-35 1.0000000180025095e-35 2.5000000000000004 3135.0000000000005 6337.5000000000009 3455.0000000000005 2.5000000000000004 1.0000000180025095e-35 1.5000000000000002 2.5000000000000004
decision_type=2 2 2 2 2 2 2 2 2 2 2 2 2 2 2 2 2
left_child=3 2 5 6 -3 8 9 12 11 -1 -11 -2 -5 -6 -8 -4 -14
right_child=1 4 15 7 13 -7 14 -9 -10 10 -12 -13 16 -15 -16 -17 -18
leaf_value=-9655.7116304347837 -2837.592731119792 10488.130048177085 6926.9998366477275 -14523.178338068181 22528.381578124998 4592.5006383928567 -1845.793146551724 -4874.4136755952377 -8965.9898958333342 -7522.0983678385419 -2921.4282251358031 1103.3836049804688 -12356.501498579546 19040.503967391305 1043.2188009510869 9270.1266964285714 -10705.397826704546
leaf_weight=23 24 30 22 22 20 35 29 21 21 30 24 20 22 23 23 21 22
leaf_count=23 24 30 22 22 20 35 29 21 21 30 24 20 22 23 23 21 22
internal_value=0 6836.24 1912.47 -6836.24 16481.4 -735.828 -4243.35 -10680.9 -3604.93 -6725.44 -5477.36 -1046.24 -12528.4 20662.8 -567.961 8071.32 -11530.9
internal_weight=0 216 143 216 73 100 129 87 65 77 54 44 66 43 52 43 44
internal_count=432 216 143 216 73 100 129 87 65 77 54 44 66 43 52 43 44
is_linear=0
shrinkage=0.01


Tree=32
num_leaves=17
num_cat=0
split_feature=0 2 2 10 8 0 6 6 0 1 5 0 7 5 0 0
split_gain=1.98031e+14 7.01275e+13 3.40713e+13 1.96749e+13 1.91899e+13 1.54198e+13 1.3557e+13 1.29114e+13 1.21816e+13 9.83305e+12 6.8675e+12 2.5306e+12 1.89966e+12 1.076e+12 8.17888e+11 4.33811e+11
threshold=5497.5000000000009 1.5000000000000002 1.5000000000000002 1.0000000180025095e-35 1.0000000180025095e-35 4087.5000000000005 1.0000000180025095e-35 1.0000000180025095e-35 3505.0000000000005 2.5000000000000004 1.0000000180025095e-35 4020.0000000000005 1.0000000180025095e-35 1.0000000180025095e-35 3455.0000000000005 4330.0000000000009
decision_type=2 2 2 2 2 2 2 2 2 2 2 2 2 2 2 2
left_child=2 4 3 8 7 -4 -3 12 13 -10 11 14 -2 -1 -5 -11
right_child=1 6 5 10 -6 -7 -8 -9 9 15 -12 -13 -14 -15 -16 -17
leaf_value=-9312.9859231770824 -5142.3861132231214 11834.893454861111 -3035.8320100911455 -14377.946690340908 9523.4906065538198 8554.6601917613643 21326.190772058824 5863.9523567708338 -6555.2471614583337 1918.3205215087892 -5143.0904687499997 -8870.1146537642035 -836.08063000488289 -6361.6369222005214 -11873.237375488281 -7.066411576704545
leaf_weight=30 21 27 24 22 36 22 34 27 27 25 20 22 20 21 32 22
leaf_count=30 21 27 24 22 36 22 34 27 27 25 20 22 20 21 32 22
internal_value=0 8612.69 -5322.45 -6952.2 3619.81 2507.45 17125.1 494.338 -4337.38 -1745.8 -10356.9 -11729 -3041.75 -8097.72 -12893.7 1017.08
internal_weight=0 165 267 221 104 46 61 68 125 74 96 76 41 51 54 47
internal_count=432 165 267 221 104 46 61 68 125 74 96 76 41 51 54 47
is_linear=0
shrinkage=0.01


Tree=33
num_leaves=18
num_cat=0
split_feature=0 2 8 10 6 6 0 5 10 1 0 0 3 0 7 7 1
split_gain=1.94206e+14 9.85654e+13 2.24541e+13 2.06822e+13 1.76763e+13 1.47108e+13 1.13016e+13 8.95299e+12 8.66887e+12 2.74527e+12 2.7275e+12 1.65939e+12 1.30044e+12 1.25718e+12 1.04042e+12 5.69968e+11 2.92955e+11
threshold=4530.0000000000009 1.5000000000000002 1.0000000180025095e-35 1.0000000180025095e-35 1.0000000180025095e-35 1.0000000180025095e-35 3645.0000000000005 1.0000000180025095e-35 1.0000000180025095e-35 2.5000000000000004 3135.0000000000005 6337.5000000000009 2.5000000000000004 3455.0000000000005 1.0000000180025095e-35 1.5000000000000002 2.5000000000000004
decision_type=2 2 2 2 2 2 2 2 2 2 2 2 2 2 2 2 2
left_child=3 2 5 6 -3 8 9 13 11 -1 -11 -2 -6 -5 -8 -4 -15
right_child=1 4 15 7 12 -7 14 -9 -10 10 -12 -13 -14 16 -16 -17 -18
leaf_value=-9489.2680978260869 -2784.3580436197917 10268.180059895834 6796.4715482954543 -14234.167031250001 22134.536484374999 4506.8227109375002 -1821.5941271551726 -4785.7786755952384 -8820.6821539016 -7373.9225055948891 -2851.0680047861738 1115.7825437011718 18647.943192934785 -12122.394375 1026.4267476222826 9099.7081696428577 -10490.453884943181
leaf_weight=23 24 30 22 22 20 35 29 21 21 30 24 20 23 22 23 21 22
leaf_count=23 24 30 22 22 20 35 29 21 21 30 24 20 23 22 23 21 22
internal_value=0 6704.86 1878.4 -6704.86 16159.4 -720.045 -4163.68 -10472.8 -3534.51 -6596.06 -5363.76 -1011.57 20269.6 -12282.3 -561.893 7921.31 -11306.4
internal_weight=0 216 143 216 73 100 129 87 65 77 54 44 43 66 52 43 44
internal_count=432 216 143 216 73 100 129 87 65 77 54 44 43 66 52 43 44
is_linear=0
shrinkage=0.01


Tree=34
num_leaves=16
num_cat=0
split_feature=0 2 6 8 9 6 6 0 5 0 0 7 7 0 0
split_gain=1.90635e+14 6.7424e+13 3.31869e+13 1.84804e+13 1.61512e+13 1.3014e+13 1.24499e+13 9.55354e+12 8.80381e+12 7.00536e+12 4.64143e+12 2.47599e+12 1.84158e+12 1.10111e+12 1.04899e+12
threshold=5497.5000000000009 1.5000000000000002 1.0000000180025095e-35 1.0000000180025095e-35 1.0000000180025095e-35 1.0000000180025095e-35 1.0000000180025095e-35 4355.0000000000009 1.0000000180025095e-35 3645.0000000000005 3865.0000000000005 1.0000000180025095e-35 1.0000000180025095e-35 3182.5000000000005 3110.0000000000005
decision_type=2 2 2 2 2 2 2 2 2 2 2 2 2 2 2
left_child=2 3 4 6 8 -3 12 -4 10 14 13 -11 -2 -1 -6
right_child=1 5 7 -5 9 -7 -8 -9 -10 11 -12 -13 -14 -15 -16
leaf_value=-14390.576209239131 -5053.1236495535713 11613.86275462963 -1752.045151803153 9348.1351746961809 -8260.2133439941408 20913.11846966912 5760.2447569444448 7053.9163529829539 -4759.1270043945315 -3111.7384405048074 -8171.0171062911186 1504.9085132998514 -813.15448291015628 -11502.776875315019 -5213.9834389261096
leaf_weight=23 21 27 28 36 20 34 27 22 32 26 38 21 20 31 26
leaf_count=23 21 27 28 36 20 34 27 22 32 26 38 21 20 31 26
internal_value=0 8450.31 -5222.1 3554.62 -6914.42 16797.1 487.469 2122.58 -9277.1 -3764.19 -10848.6 -1048.98 -2984.85 -12732.8 -6538.43
internal_weight=0 165 267 104 217 61 68 50 124 93 92 47 41 54 46
internal_count=432 165 267 104 217 61 68 50 124 93 92 47 41 54 46
is_linear=0
shrinkage=0.01


Tree=35
num_leaves=17
num_cat=0
split_feature=0 2 2 10 8 0 6 6 0 1 5 0 7 5 0 0
split_gain=1.86841e+14 6.60823e+13 3.25285e+13 1.86616e+13 1.81126e+13 1.45761e+13 1.2755e+13 1.22022e+13 1.15074e+13 9.52172e+12 6.43939e+12 2.3787e+12 1.80493e+12 1.02833e+12 7.65257e+11 4.40368e+11
threshold=5497.5000000000009 1.5000000000000002 1.5000000000000002 1.0000000180025095e-35 1.0000000180025095e-35 4087.5000000000005 1.0000000180025095e-35 1.0000000180025095e-35 3505.0000000000005 2.5000000000000004 1.0000000180025095e-35 4020.0000000000005 1.0000000180025095e-35 1.0000000180025095e-35 3455.0000000000005 4330.0000000000009
decision_type=2 2 2 2 2 2 2 2 2 2 2 2 2 2 2 2
left_child=2 4 3 8 7 -4 -3 12 13 -10 11 14 -2 -1 -5 -11
right_child=1 6 5 10 -6 -7 -8 -9 9 15 -12 -13 -14 -15 -16 -17
leaf_value=-9058.5630508219401 -5002.5925785900299 11497.724068287036 -2908.8014123535158 -13971.717400568181 9254.6539073350705 8360.1258806818187 20703.987228860293 5702.6422743055555 -6429.5634027777778 1929.9508982421873 -5029.4895468750001 -8635.0654651988643 -805.02292138671885 -6173.3235779389879 -11548.936713867188 -9.9326154119318186
leaf_weight=30 21 27 24 22 36 22 34 27 27 25 20 22 20 21 32 22
leaf_count=30 21 27 24 22 36 22 34 27 27 25 20 22 20 21 32 22
internal_value=0 8365.81 -5169.88 -6762.31 3519.08 2480.69 16629.1 482.595 -4215.72 -1696.86 -10078.2 -11406.8 -2955 -7870.52 -12536 1021.92
internal_weight=0 165 267 221 104 46 61 68 125 74 96 76 41 51 54 47
internal_count=432 165 267 221 104 46 61 68 125 74 96 76 41 51 54 47
is_linear=0
shrinkage=0.01


Tree=36
num_leaves=16
num_cat=0
split_feature=0 2 3 5 10 6 0 1 0 7 5 0 3 0 1
split_gain=1.83246e+14 9.30323e+13 2.13598e+13 2.45298e+13 1.96233e+13 1.68025e+13 1.43434e+13 1.07429e+13 1.27607e+13 8.50007e+12 8.45738e+12 2.39293e+12 1.32598e+12 1.17896e+12 2.86778e+11
threshold=4530.0000000000009 1.5000000000000002 2.5000000000000004 1.0000000180025095e-35 1.0000000180025095e-35 1.0000000180025095e-35 6390.0000000000009 2.5000000000000004 3632.5000000000005 1.0000000180025095e-35 1.0000000180025095e-35 3135.0000000000005 2.5000000000000004 3455.0000000000005 2.5000000000000004
decision_type=2 2 2 2 2 2 2 2 2 2 2 2 2 2 2
left_child=4 2 3 9 7 -3 -5 -1 11 -2 13 -9 -7 -6 -15
right_child=1 5 -4 6 10 12 -8 8 -10 -11 -12 -13 -14 14 -16
leaf_value=-8421.4791326121795 -7129.7272305836404 9954.4810494791673 10887.710003551136 -214.17319069602271 -13832.00025568182 21588.730359375004 10756.898511117788 -7144.623607421875 2368.6682590793921 -289.02098858173076 -4655.7557514880955 -2857.3766629161005 18068.077717391305 -11804.12330255682 -10189.479311079545
leaf_weight=39 34 30 22 22 22 20 26 30 37 39 21 23 23 22 22
leaf_count=39 34 30 22 22 22 20 26 30 37 39 21 23 23 22 22
internal_value=0 6512.91 1823.88 175.909 -6512.91 15698.3 5728.49 -4037.64 -2137.97 -3475.1 -10183.2 -5284.12 19705.6 -11941.9 -10996.8
internal_weight=0 216 143 121 216 73 48 129 90 73 87 53 43 66 44
internal_count=432 216 143 121 216 73 48 129 90 73 87 53 43 66 44
is_linear=0
shrinkage=0.01


Tree=37
num_leaves=17
num_cat=0
split_feature=0 2 6 8 9 6 6 0 0 0 5 7 7 0 0 0
split_gain=1.79826e+14 6.35478e+13 3.1702e+13 1.74479e+13 1.53388e+13 1.2243e+13 1.18713e+13 8.8803e+12 8.38898e+12 6.62857e+12 3.51515e+12 2.38688e+12 1.72241e+12 1.62202e+12 9.91677e+11 4.58399e+09
threshold=5497.5000000000009 1.5000000000000002 1.0000000180025095e-35 1.0000000180025095e-35 1.0000000180025095e-35 1.0000000180025095e-35 1.0000000180025095e-35 4355.0000000000009 4043.0000000000005 3645.0000000000005 1.0000000180025095e-35 1.0000000180025095e-35 1.0000000180025095e-35 3182.5000000000005 3110.0000000000005 3632.5000000000005
decision_type=2 2 2 2 2 2 2 2 2 2 2 2 2 2 2 2
left_child=2 3 4 6 8 -3 12 -4 10 14 13 -11 -2 -1 -6 -15
right_child=1 5 7 -5 9 -7 -8 -9 -10 11 -12 -13 -14 15 -16 -17
leaf_value=-14015.590298913045 -4916.7632040550598 11283.201898148149 -1629.0283196803503 9083.7366004774303 -8028.6351308593748 20302.805326286765 5622.9281481481485 6860.9855823863636 -4961.7920073784726 -3040.0670733173074 -7332.1576698369572 1492.7441336495538 -816.27706182861323 -10821.490767578125 -5066.7900694861783 -10612.31072443182
leaf_weight=23 21 27 28 36 20 34 27 22 36 26 23 21 20 20 26 22
leaf_count=23 21 27 28 36 20 34 27 22 36 26 23 21 20 20 26 22
internal_value=0 8207.26 -5071.9 3454.38 -6725.93 16310.5 474.14 2106.58 -9028.41 -3655.95 -10692 -1014.77 -2916.53 -11880.9 -6354.55 -10711.9
internal_weight=0 165 267 104 217 61 68 50 124 93 88 47 41 65 46 42
internal_count=432 165 267 104 217 61 68 50 124 93 88 47 41 65 46 42
is_linear=0
shrinkage=0.01


Tree=38
num_leaves=17
num_cat=0
split_feature=0 2 6 8 9 6 6 0 0 0 5 7 7 0 0 0
split_gain=1.76248e+14 6.22832e+13 3.10711e+13 1.71007e+13 1.50336e+13 1.19994e+13 1.16351e+13 8.70358e+12 8.22204e+12 6.49666e+12 3.44519e+12 2.33938e+12 1.68813e+12 1.58975e+12 9.71943e+11 4.49279e+09
threshold=5497.5000000000009 1.5000000000000002 1.0000000180025095e-35 1.0000000180025095e-35 1.0000000180025095e-35 1.0000000180025095e-35 1.0000000180025095e-35 4355.0000000000009 4043.0000000000005 3645.0000000000005 1.0000000180025095e-35 1.0000000180025095e-35 1.0000000180025095e-35 3182.5000000000005 3110.0000000000005 3632.5000000000005
decision_type=2 2 2 2 2 2 2 2 2 2 2 2 2 2 2 2
left_child=2 3 4 6 8 -3 12 -4 10 14 13 -11 -2 -1 -6 -15
right_child=1 5 7 -5 9 -7 -8 -9 -10 11 -12 -13 -14 15 -16 -17
leaf_value=-13875.434388586957 -4867.595558035714 11170.369843750001 -1612.738109741211 8992.899107530382 -7948.3488984375008 20099.777297794117 5566.6989395254632 6792.3760085227268 -4912.1740250651046 -3009.6664317908658 -7258.8362160326087 1477.8166592261905 -808.11431390380869 -10713.276083984376 -5016.1221844951924 -10506.187437855115
leaf_weight=23 21 27 28 36 20 34 27 22 36 26 23 21 20 20 26 22
leaf_count=23 21 27 28 36 20 34 27 22 36 26 23 21 20 20 26 22
internal_value=0 8125.19 -5021.18 3419.84 -6658.67 16147.4 469.398 2085.51 -8938.13 -3619.39 -10585.1 -1004.62 -2887.36 -11762.1 -6291 -10604.8
internal_weight=0 165 267 104 217 61 68 50 124 93 88 47 41 65 46 42
internal_count=432 165 267 104 217 61 68 50 124 93 88 47 41 65 46 42
is_linear=0
shrinkage=0.01


Tree=39
num_leaves=17
num_cat=0
split_feature=0 2 2 10 8 0 6 6 0 1 5 0 7 5 0 0
split_gain=1.7274e+14 6.10437e+13 3.07651e+13 1.75258e+13 1.67604e+13 1.35999e+13 1.17606e+13 1.14035e+13 1.06694e+13 8.99645e+12 5.97688e+12 2.14651e+12 1.65454e+12 9.71798e+11 7.04068e+11 4.57513e+11
threshold=5497.5000000000009 1.5000000000000002 1.5000000000000002 1.0000000180025095e-35 1.0000000180025095e-35 3969.0000000000005 1.0000000180025095e-35 1.0000000180025095e-35 3505.0000000000005 2.5000000000000004 1.0000000180025095e-35 4020.0000000000005 1.0000000180025095e-35 1.0000000180025095e-35 3455.0000000000005 4330.0000000000009
decision_type=2 2 2 2 2 2 2 2 2 2 2 2 2 2 2 2
left_child=2 4 3 8 7 -4 -3 12 13 -10 11 14 -2 -1 -5 -11
right_child=1 6 5 10 -6 -7 -8 -9 9 15 -12 -13 -14 -15 -16 -17
leaf_value=-8725.8841002604167 -4818.9196791294644 11058.666203703704 -3463.3197265624999 -13462.828572443181 8902.9701360066738 7452.7620750000006 19898.779834558823 5511.0318315972227 -6226.6631423611116 1941.9108662109375 -4869.0139960937504 -8380.0440855823872 -800.03314736938489 -5921.0787667410714 -11138.926010742187 -35.373884943181821
leaf_weight=30 21 27 21 22 36 25 34 27 27 25 20 22 20 21 32 22
leaf_count=30 21 27 21 22 36 25 34 27 27 25 20 22 20 21 32 22
internal_value=0 8043.94 -4970.97 -6519.63 3385.64 2469.33 15985.9 464.704 -4051.76 -1626.36 -9733.01 -11013 -2858.49 -7570.96 -12085.7 1016.37
internal_weight=0 165 267 221 104 46 61 68 125 74 96 76 41 51 54 47
internal_count=432 165 267 221 104 46 61 68 125 74 96 76 41 51 54 47
is_linear=0
shrinkage=0.01


Tree=40
num_leaves=16
num_cat=0
split_feature=0 2 3 5 10 6 0 1 0 7 5 0 3 0 1
split_gain=1.69424e+14 8.63333e+13 2.05669e+13 2.33932e+13 1.83622e+13 1.57244e+13 1.36129e+13 1.03383e+13 1.18548e+13 7.97115e+12 7.94871e+12 2.23043e+12 1.37761e+12 1.08158e+12 2.73814e+11
threshold=4530.0000000000009 1.5000000000000002 2.5000000000000004 1.0000000180025095e-35 1.0000000180025095e-35 1.0000000180025095e-35 6390.0000000000009 2.5000000000000004 3632.5000000000005 1.0000000180025095e-35 1.0000000180025095e-35 3135.0000000000005 2.5000000000000004 3455.0000000000005 2.5000000000000004
decision_type=2 2 2 2 2 2 2 2 2 2 2 2 2 2 2
left_child=4 2 3 9 7 -3 -5 -1 11 -2 13 -9 -7 -6 -15
right_child=1 5 -4 6 10 12 -8 8 -10 -11 -12 -13 -14 14 -16
leaf_value=-8168.537642227564 -6976.2058352481617 9554.4726458333334 10639.424753251509 -238.62292835582386 -13328.200298295455 20907.012921875001 10449.401409254808 -6833.1331471354169 2339.2263167757601 -351.75063877203524 -4454.2087574404768 -2694.014701511549 17318.466250000001 -11401.481738281251 -9823.7564133522737
leaf_weight=39 34 30 22 22 22 20 26 30 37 39 21 23 23 22 22
leaf_count=39 34 30 22 22 22 20 26 30 37 39 21 23 23 22 22
internal_value=0 6262.46 1745.4 128.31 -6262.46 15110.9 5550.72 -3868.05 -2004.5 -3437.11 -9812.8 -5036.91 18987.6 -11517.8 -10612.6
internal_weight=0 216 143 121 216 73 48 129 90 73 87 53 43 66 44
internal_count=432 216 143 121 216 73 48 129 90 73 87 53 43 66 44
is_linear=0
shrinkage=0.01


Tree=41
num_leaves=16
num_cat=0
split_feature=0 2 6 8 9 6 6 0 5 0 0 7 7 0 0
split_gain=1.66253e+14 5.87019e+13 2.96798e+13 1.61412e+13 1.42769e+13 1.12871e+13 1.10934e+13 8.09734e+12 7.81917e+12 6.14269e+12 3.97759e+12 2.25924e+12 1.57839e+12 1.01301e+12 9.19343e+11
threshold=5497.5000000000009 1.5000000000000002 1.0000000180025095e-35 1.0000000180025095e-35 1.0000000180025095e-35 1.0000000180025095e-35 1.0000000180025095e-35 4355.0000000000009 1.0000000180025095e-35 3645.0000000000005 3865.0000000000005 1.0000000180025095e-35 1.0000000180025095e-35 3182.5000000000005 3110.0000000000005
decision_type=2 2 2 2 2 2 2 2 2 2 2 2 2 2 2
left_child=2 3 4 6 8 -3 12 -4 10 14 13 -11 -2 -1 -6
right_child=1 5 7 -5 9 -7 -8 -9 -10 11 -12 -13 -14 -15 -16
leaf_value=-13513.847676630436 -4735.5777585565475 10852.534820601852 -1498.1022690582276 8737.8258268229165 -7725.016013671875 19512.886364889706 5434.1358496093753 6609.0052130681825 -4440.6617578124997 -2943.1940204326925 -7700.7946283922693 1466.7615225074405 -810.26915576171871 -10743.978641633066 -4873.2354927884617
leaf_weight=23 21 27 28 36 20 34 27 22 32 26 38 21 20 31 26
leaf_count=23 21 27 28 36 20 34 27 22 32 26 38 21 20 31 26
internal_value=0 7891.44 -4876.73 3323.37 -6477.14 15679.6 456.899 2069.03 -8698.49 -3515.33 -10179.5 -972.788 -2820.79 -11923.7 -6113.14
internal_weight=0 165 267 104 217 61 68 50 124 93 92 47 41 54 46
internal_count=432 165 267 104 217 61 68 50 124 93 92 47 41 54 46
is_linear=0
shrinkage=0.01


Tree=42
num_leaves=17
num_cat=0
split_feature=0 2 2 10 8 0 6 6 0 1 5 0 7 5 0 0
split_gain=1.62944e+14 5.75337e+13 2.93243e+13 1.66564e+13 1.582e+13 1.28871e+13 1.10625e+13 1.08727e+13 1.0115e+13 8.5475e+12 5.60367e+12 2.01258e+12 1.54698e+12 9.29465e+11 6.58467e+11 4.57901e+11
threshold=5497.5000000000009 1.5000000000000002 1.5000000000000002 1.0000000180025095e-35 1.0000000180025095e-35 4087.5000000000005 1.0000000180025095e-35 1.0000000180025095e-35 3505.0000000000005 2.5000000000000004 1.0000000180025095e-35 4020.0000000000005 1.0000000180025095e-35 1.0000000180025095e-35 3455.0000000000005 4330.0000000000009
decision_type=2 2 2 2 2 2 2 2 2 2 2 2 2 2 2 2
left_child=2 4 3 8 7 -4 -3 12 13 -10 11 14 -2 -1 -5 -11
right_child=1 6 5 10 -6 -7 -8 -9 9 15 -12 -13 -14 -15 -16 -17
leaf_value=-8490.0945436197908 -4688.2219866071428 10744.009699074075 -2631.5849609375 -13082.460042613635 8650.447422960071 7964.340237926137 19317.757410386032 5379.794566695602 -6056.5354383680551 1929.3932284667969 -4762.9025000000001 -8162.4848512961644 -802.16652099609382 -5747.0601469494059 -10835.074277343751 -48.730759943181823
leaf_weight=30 21 27 24 22 36 22 34 27 27 25 20 22 20 21 32 22
leaf_count=30 21 27 24 22 36 22 34 27 27 25 20 22 20 21 32 22
internal_value=0 7812.52 -4827.96 -6339.93 3290.14 2436.03 15522.8 452.33 -3934.04 -1572.48 -9472.6 -10712 -2792.59 -7360.61 -11750.7 1003.46
internal_weight=0 165 267 221 104 46 61 68 125 74 96 76 41 51 54 47
internal_count=432 165 267 221 104 46 61 68 125 74 96 76 41 51 54 47
is_linear=0
shrinkage=0.01


Tree=43
num_leaves=16
num_cat=0
split_feature=0 2 3 5 10 6 0 1 0 7 5 0 3 0 1
split_gain=1.59866e+14 8.14896e+13 1.99339e+13 2.24931e+13 1.74213e+13 1.49521e+13 1.30498e+13 9.98014e+12 1.12067e+13 7.56931e+12 7.50957e+12 2.11983e+12 1.39913e+12 1.01404e+12 2.67958e+11
threshold=4530.0000000000009 1.5000000000000002 2.5000000000000004 1.0000000180025095e-35 1.0000000180025095e-35 1.0000000180025095e-35 6390.0000000000009 2.5000000000000004 3632.5000000000005 1.0000000180025095e-35 1.0000000180025095e-35 3135.0000000000005 2.5000000000000004 3455.0000000000005 2.5000000000000004
decision_type=2 2 2 2 2 2 2 2 2 2 2 2 2 2 2
left_child=4 2 3 9 7 -3 -5 -1 11 -2 13 -9 -7 -6 -15
right_child=1 5 -4 6 10 12 -8 8 -10 -11 -12 -13 -14 14 -16
leaf_value=-7976.3305869391024 -6842.1722047334561 9261.622911458333 10450.805929953836 -248.55977627840909 -12951.635617897728 20394.536890625001 10216.102068810096 -6619.4835924479166 2303.3361658622125 -386.84973388671875 -4332.969828869047 -2584.2943087635872 16778.06843070652 -11102.586718750001 -9541.8220951704552
leaf_weight=39 34 30 22 22 22 20 26 30 37 39 21 23 23 22 22
leaf_count=39 34 30 22 22 22 20 26 30 37 39 21 23 23 22 22
internal_value=0 6083.25 1694.73 102.722 -6083.25 14679.9 5419.8 -3750.98 -1920 -3393.44 -9541.44 -4868.36 18460.1 -11198.7 -10322.2
internal_weight=0 216 143 121 216 73 48 129 90 73 87 53 43 66 44
internal_count=432 216 143 121 216 73 48 129 90 73 87 53 43 66 44
is_linear=0
shrinkage=0.01


Tree=44
num_leaves=17
num_cat=0
split_feature=0 2 6 8 9 6 6 0 0 0 5 7 0 7 0 0
split_gain=1.56823e+14 5.53271e+13 2.83532e+13 1.52331e+13 1.35573e+13 1.06162e+13 1.05766e+13 7.51908e+12 7.41231e+12 5.81341e+12 2.9317e+12 2.17784e+12 1.49249e+12 1.47545e+12 8.68937e+11 2.79111e+09
threshold=5497.5000000000009 1.5000000000000002 1.0000000180025095e-35 1.0000000180025095e-35 1.0000000180025095e-35 1.0000000180025095e-35 1.0000000180025095e-35 4355.0000000000009 4043.0000000000005 3645.0000000000005 1.0000000180025095e-35 1.0000000180025095e-35 3182.5000000000005 1.0000000180025095e-35 3110.0000000000005 3632.5000000000005
decision_type=2 2 2 2 2 2 2 2 2 2 2 2 2 2 2 2
left_child=2 3 4 6 8 -3 13 -4 10 14 12 -11 -1 -2 -6 -14
right_child=1 5 7 -5 9 -7 -8 -9 -10 11 -12 -13 15 -15 -16 -17
leaf_value=-13162.483980978262 -4606.8182719494052 10543.953260995371 -1385.0575376674108 8489.510901692709 -7508.7372089843757 18942.971537224264 5304.8081475151912 6427.2089559659098 -4642.7231510416668 -2875.5725525841344 -6960.6834680706525 1454.2036709449405 -10078.9748203125 -811.66884082031254 -4736.2376307091345 -9915.7496999289779
leaf_weight=23 21 27 28 36 20 34 27 22 36 26 23 21 20 20 26 22
leaf_count=23 21 27 28 36 20 34 27 22 36 26 23 21 20 20 26 22
internal_value=0 7664.38 -4736.42 3229.57 -6300.65 15225.4 444.901 2052.34 -8465.3 -3414.45 -10029.1 -940.992 -11114.8 -2755.53 -5941.67 -9993.48
internal_weight=0 165 267 104 217 61 68 50 124 93 88 47 65 41 46 42
internal_count=432 165 267 104 217 61 68 50 124 93 88 47 65 41 46 42
is_linear=0
shrinkage=0.01


Tree=45
num_leaves=17
num_cat=0
split_feature=0 2 2 10 8 0 6 6 0 1 5 0 7 5 1 0
split_gain=1.53703e+14 5.42261e+13 2.79665e+13 1.58407e+13 1.493e+13 1.22174e+13 1.0405e+13 1.03661e+13 9.57584e+12 8.12838e+12 5.28498e+12 1.86403e+12 1.44608e+12 8.94261e+11 6.48481e+11 4.59855e+11
threshold=5497.5000000000009 1.5000000000000002 1.5000000000000002 1.0000000180025095e-35 1.0000000180025095e-35 3969.0000000000005 1.0000000180025095e-35 1.0000000180025095e-35 3505.0000000000005 2.5000000000000004 1.0000000180025095e-35 4020.0000000000005 1.0000000180025095e-35 1.0000000180025095e-35 2.5000000000000004 4330.0000000000009
decision_type=2 2 2 2 2 2 2 2 2 2 2 2 2 2 2 2
left_child=2 4 3 8 7 -4 -3 12 13 -10 11 14 -2 -1 -5 -11
right_child=1 6 5 10 -6 -7 -8 -9 9 15 -12 -13 -14 -15 -16 -17
leaf_value=-8261.2367506510418 -4560.7500204613098 10438.513822337964 -3218.2636095610123 -12561.063353365385 8404.615720486112 7128.1306750000003 18753.541655560661 5251.7599867078989 -5894.3457364004635 1918.2909417480469 -4646.7882695312501 -7970.6210828746453 -803.55203808593751 -5570.6499497767854 -10367.855485491073 -64.048821022727267
leaf_weight=30 21 27 21 26 36 25 34 27 27 25 20 22 20 21 28 22
leaf_count=30 21 27 21 26 36 25 34 27 27 25 20 22 20 21 28 22
internal_value=0 7587.74 -4689.05 -6165.6 3197.28 2404.78 15073.1 440.452 -3819.36 -1521.61 -9220.59 -10424.2 -2727.97 -7153.35 -11423.8 990.387
internal_weight=0 165 267 221 104 46 61 68 125 74 96 76 41 51 54 47
internal_count=432 165 267 221 104 46 61 68 125 74 96 76 41 51 54 47
is_linear=0
shrinkage=0.01


Tree=46
num_leaves=16
num_cat=0
split_feature=0 2 3 5 10 6 0 1 0 7 5 0 3 0 1
split_gain=1.50775e+14 7.69576e+13 1.93224e+13 2.16534e+13 1.65165e+13 1.42248e+13 1.25115e+13 9.63317e+12 1.05725e+13 7.19852e+12 7.12982e+12 1.80152e+12 1.42036e+12 9.65143e+11 2.53576e+11
threshold=4530.0000000000009 1.5000000000000002 2.5000000000000004 1.0000000180025095e-35 1.0000000180025095e-35 1.0000000180025095e-35 6390.0000000000009 2.5000000000000004 3610.0000000000005 1.0000000180025095e-35 1.0000000180025095e-35 3135.0000000000005 2.5000000000000004 3455.0000000000005 2.5000000000000004
decision_type=2 2 2 2 2 2 2 2 2 2 2 2 2 2 2
left_child=4 2 3 9 7 -3 -5 -1 11 -2 13 -9 -7 -6 -15
right_child=1 5 -4 6 10 12 -8 8 -10 -11 -12 -13 -14 14 -16
leaf_value=-7788.1229552283648 -6717.8581428079042 8977.0899140625006 10263.753433948863 -257.70352117365053 -12599.914595170454 19898.120484374998 9988.8418960336548 -6407.6618489583343 2081.3999834735578 -422.63297538561699 -4199.8809002976186 -2588.7930561755952 16254.314719769021 -10793.81247425426 -9275.511846590909
leaf_weight=39 34 30 22 22 22 20 26 30 39 39 21 21 23 22 22
leaf_count=39 34 30 22 22 22 20 26 30 39 39 21 21 23 22 22
internal_value=0 5907.77 1643.03 75.6244 -5907.77 14262 5292.51 -3636.87 -1838 -3354.66 -9274.95 -4835.19 17949.1 -10889.7 -10034.7
internal_weight=0 216 143 121 216 73 48 129 90 73 87 51 43 66 44
internal_count=432 216 143 121 216 73 48 129 90 73 87 51 43 66 44
is_linear=0
shrinkage=0.01


Tree=47
num_leaves=17
num_cat=0
split_feature=0 2 6 8 0 5 6 6 10 0 9 5 7 0 0 0
split_gain=1.47928e+14 5.21465e+13 2.70924e+13 1.43736e+13 1.2875e+13 1.60431e+13 1.00834e+13 9.98421e+12 7.81263e+12 6.9873e+12 5.61526e+12 1.83631e+12 1.37888e+12 9.29924e+11 8.20011e+11 7.67262e+11
threshold=5497.5000000000009 1.5000000000000002 1.0000000180025095e-35 1.0000000180025095e-35 3645.0000000000005 1.0000000180025095e-35 1.0000000180025095e-35 1.0000000180025095e-35 1.0000000180025095e-35 4355.0000000000009 1.0000000180025095e-35 1.0000000180025095e-35 1.0000000180025095e-35 3182.5000000000005 3110.0000000000005 4310.0000000000009
decision_type=2 2 2 2 2 2 2 2 2 2 2 2 2 2 2 2
left_child=2 3 4 6 10 8 12 -3 15 -4 11 13 -2 -1 -12 -6
right_child=1 7 9 -5 5 -7 -8 -9 -10 -11 14 -13 -14 -15 -16 -17
leaf_value=-12829.879660326087 -4481.1902585565476 10244.357766203704 -1277.6412459891183 8247.7864447699649 -1596.1214587983632 3042.5395970775462 5178.657611219618 18389.530994944853 -9315.2498110114211 6253.3027627840911 -7297.9696420898445 -7775.1942324218753 -812.33318554687503 -10016.016002604167 -4604.654680363582 -4332.8972460937503
leaf_weight=23 21 27 28 36 21 27 27 34 36 22 20 20 20 24 26 20
leaf_count=23 21 27 28 36 21 27 27 34 36 22 20 20 20 24 26 20
internal_value=0 7443.84 -4600.13 3138.39 -6129.18 -3590.16 433.413 14784.3 -5915.92 2035.97 -8465.98 -10313.1 -2691.5 -11393 -5775.66 -2931.13
internal_weight=0 165 267 104 217 104 68 61 77 50 113 67 41 47 46 41
internal_count=432 165 267 104 217 104 68 61 77 50 113 67 41 47 46 41
is_linear=0
shrinkage=0.01


Tree=48
num_leaves=17
num_cat=0
split_feature=0 2 2 10 8 0 6 6 0 1 5 0 7 5 1 0
split_gain=1.44984e+14 5.11088e+13 2.66193e+13 1.50325e+13 1.40876e+13 1.15234e+13 9.88272e+12 9.78552e+12 9.05125e+12 7.73769e+12 4.92891e+12 1.76617e+12 1.35144e+12 8.62159e+11 6.33124e+11 4.58739e+11
threshold=5497.5000000000009 1.5000000000000002 1.5000000000000002 1.0000000180025095e-35 1.0000000180025095e-35 3969.0000000000005 1.0000000180025095e-35 1.0000000180025095e-35 3505.0000000000005 2.5000000000000004 1.0000000180025095e-35 4020.0000000000005 1.0000000180025095e-35 1.0000000180025095e-35 2.5000000000000004 4330.0000000000009
decision_type=2 2 2 2 2 2 2 2 2 2 2 2 2 2 2 2
left_child=2 4 3 8 6 -4 12 -3 13 -10 11 14 -2 -1 -5 -11
right_child=1 7 5 10 -6 -7 -8 -9 9 15 -12 -13 -14 -15 -16 -17
leaf_value=-8038.2676997070321 -4436.3785193452377 10141.914138816552 -3094.263834635417 -12229.787932692308 8165.308533528646 6953.9609640625004 5126.8708940972228 18205.635774643844 -5741.4930743634259 1902.5210980468751 -4553.6675273437504 -7744.7536687677557 -804.20967480468755 -5396.4154668898809 -10062.705485491071 -77.412066761363647
leaf_weight=30 21 27 21 26 36 25 27 34 27 25 20 22 20 21 28 22
leaf_count=30 21 27 21 26 36 25 27 34 27 25 20 22 20 21 28 22
internal_value=0 7369.4 -4554.13 -5994.67 3107 2366.73 429.079 14636.4 -3709.06 -1475.14 -8970.71 -10133.1 -2664.59 -6950.45 -11106.1 975.744
internal_weight=0 165 267 221 104 46 68 61 125 74 96 76 41 51 54 47
internal_count=432 165 267 221 104 46 68 61 125 74 96 76 41 51 54 47
is_linear=0
shrinkage=0.01


Tree=49
num_leaves=16
num_cat=0
split_feature=0 2 3 5 10 7 6 0 1 0 7 5 0 0 1
split_gain=1.42269e+14 7.26515e+13 1.87316e+13 2.07534e+13 1.56456e+13 1.40318e+13 2.02734e+13 1.20474e+13 9.29671e+12 9.95306e+12 6.84536e+12 6.72092e+12 1.90698e+12 9.24272e+11 2.41047e+11
threshold=4530.0000000000009 1.5000000000000002 2.5000000000000004 1.0000000180025095e-35 1.0000000180025095e-35 1.0000000180025095e-35 1.0000000180025095e-35 6390.0000000000009 2.5000000000000004 3632.5000000000005 1.0000000180025095e-35 1.0000000180025095e-35 3135.0000000000005 3455.0000000000005 2.5000000000000004
decision_type=2 2 2 2 2 2 2 2 2 2 2 2 2 2 2
left_child=4 2 3 10 8 -3 -7 -5 -1 12 -2 13 -10 -6 -15
right_child=1 5 -4 7 11 6 -8 -9 9 -11 -12 -13 -14 14 -16
leaf_value=-7606.6009402544078 -6586.1548965992652 7591.307989705404 10082.905887784091 -287.2316317471591 -12257.287571022727 9178.6592937011719 22265.884938038795 9767.4601352163463 -6200.7562329101565 2218.7869659258868 -447.29434495192305 -4088.5229241071429 -2373.5078787364132 -10487.096180308949 -9006.7805255681833
leaf_weight=39 34 24 22 22 22 20 29 26 30 37 39 21 23 22 22
leaf_count=39 34 24 22 22 22 20 29 26 30 37 39 21 23 22 22
internal_value=0 5738.71 1595 51.7448 -5738.71 13855.8 16924.2 5159.06 -3528.49 -1761.31 -3306.49 -9015.91 -4539.87 -10583.7 -9746.94
internal_weight=0 216 143 121 216 73 49 48 129 90 73 87 53 66 44
internal_count=432 216 143 121 216 73 49 48 129 90 73 87 53 66 44
is_linear=0
shrinkage=0.01


Tree=50
num_leaves=17
num_cat=0
split_feature=0 2 6 8 0 5 6 6 10 0 9 5 7 0 0 0
split_gain=1.39506e+14 4.91312e+13 2.59e+13 1.35604e+13 1.22286e+13 1.54812e+13 9.61283e+12 9.38027e+12 7.32326e+12 6.49972e+12 5.35303e+12 1.6977e+12 1.2883e+12 9.14272e+11 7.75442e+11 7.34702e+11
threshold=5497.5000000000009 1.5000000000000002 1.0000000180025095e-35 1.0000000180025095e-35 3645.0000000000005 1.0000000180025095e-35 1.0000000180025095e-35 1.0000000180025095e-35 1.0000000180025095e-35 4355.0000000000009 1.0000000180025095e-35 1.0000000180025095e-35 1.0000000180025095e-35 3182.5000000000005 3110.0000000000005 4310.0000000000009
decision_type=2 2 2 2 2 2 2 2 2 2 2 2 2 2 2 2
left_child=2 3 4 6 10 8 12 -3 15 -4 11 13 -2 -1 -12 -6
right_child=1 7 9 -5 5 -7 -8 -9 -10 -11 14 -13 -14 -15 -16 -17
leaf_value=-12506.218043478262 -4358.6641276041673 9953.4115379050927 -1174.7481148856027 8012.4763308376741 -1576.3236569940477 3027.7034601056134 5055.5752083333336 17848.397011144301 -9063.6391059027774 6088.6841903409095 -7093.2756762695317 -7602.9025253906257 -812.36189843750003 -9716.134882812501 -4474.1765978064905 -4254.3996718749995
leaf_weight=23 21 27 28 36 21 27 27 34 36 22 20 20 20 24 26 20
leaf_count=23 21 27 28 36 21 27 27 34 36 22 20 20 20 24 26 20
internal_value=0 7228.84 -4467.26 3049.72 -5962.29 -3487.83 422.373 14353.9 -5772.49 2021.16 -8239.67 -10043.1 -2628.76 -11081.5 -5612.92 -2882.7
internal_weight=0 165 267 104 217 104 68 61 77 50 113 67 41 47 46 41
internal_count=432 165 267 104 217 104 68 61 77 50 113 67 41 47 46 41
is_linear=0
shrinkage=0.01


Tree=51
num_leaves=16
num_cat=0
split_feature=0 2 3 5 10 7 6 0 1 0 7 5 0 0 1
split_gain=1.36758e+14 6.99498e+13 1.82466e+13 2.00722e+13 1.51231e+13 1.3735e+13 1.96738e+13 1.17456e+13 9.08378e+12 9.58152e+12 6.61692e+12 6.47745e+12 1.64231e+12 8.91704e+11 2.34714e+11
threshold=4530.0000000000009 1.5000000000000002 2.5000000000000004 1.0000000180025095e-35 1.0000000180025095e-35 1.0000000180025095e-35 1.0000000180025095e-35 6390.0000000000009 2.5000000000000004 3610.0000000000005 1.0000000180025095e-35 1.0000000180025095e-35 3135.0000000000005 3455.0000000000005 2.5000000000000004
decision_type=2 2 2 2 2 2 2 2 2 2 2 2 2 2 2
left_child=4 2 3 10 8 -3 -7 -5 -1 12 -2 13 -10 -6 -15
right_child=1 5 -4 7 11 6 -8 -9 9 -11 -12 -13 -14 14 -16
leaf_value=-7484.6032261618593 -6489.7511916934745 7393.3120735677085 9937.8304208096597 -317.47703746448866 -12031.445646306818 8996.8474697265628 21889.072595635775 9610.4966391225971 -6061.29777311198 2024.5598914513223 -454.18945963541665 -4011.1649590773814 -2415.0794759114583 -10296.091115056817 -8835.3509374999994
leaf_weight=39 34 24 22 22 22 20 29 26 30 39 39 21 21 22 22
leaf_count=39 34 24 22 22 22 20 29 26 30 39 39 21 21 22 22
internal_value=0 5626.46 1560.53 37.3842 -5626.46 13591.2 16626.9 5060.18 -3453.47 -1706.64 -3265.27 -8848.48 -4559.91 -10387.6 -9565.72
internal_weight=0 216 143 121 216 73 49 48 129 90 73 87 51 66 44
internal_count=432 216 143 121 216 73 49 48 129 90 73 87 51 66 44
is_linear=0
shrinkage=0.01


Tree=52
num_leaves=17
num_cat=0
split_feature=0 2 6 8 9 6 6 0 0 0 5 7 0 7 0 0
split_gain=1.34235e+14 4.72298e+13 2.49826e+13 1.3052e+13 1.18111e+13 9.35041e+12 8.9906e+12 6.3909e+12 6.14834e+12 5.0267e+12 2.39063e+12 2.04468e+12 1.39503e+12 1.22785e+12 7.45725e+11 1.49945e+09
threshold=5497.5000000000009 1.5000000000000002 1.0000000180025095e-35 1.0000000180025095e-35 1.0000000180025095e-35 1.0000000180025095e-35 1.0000000180025095e-35 4043.0000000000005 4355.0000000000009 3645.0000000000005 1.0000000180025095e-35 1.0000000180025095e-35 3182.5000000000005 1.0000000180025095e-35 3110.0000000000005 3632.5000000000005
decision_type=2 2 2 2 2 2 2 2 2 2 2 2 2 2 2 2
left_child=2 3 4 5 7 13 -3 10 -4 14 12 -11 -1 -2 -6 -14
right_child=1 6 8 -5 9 -7 -8 -9 -10 11 -12 -13 15 -15 -16 -17
leaf_value=-12282.965067934783 -4282.1537127976189 9768.6601099537038 -1117.8997359793527 7862.3345279947916 -6958.1716787109372 4985.3951837384257 17497.920472196693 -4321.3497753906249 5946.4712180397728 -2730.9371161358176 -6552.025988451087 1464.3860212053571 -9281.8353281250002 -820.05792968750006 -4389.7484434626658 -9162.1986940696024
leaf_weight=23 21 27 28 36 20 27 34 36 22 26 23 21 20 20 26 22
leaf_count=23 21 27 28 36 20 27 34 36 22 26 23 21 20 20 26 22
internal_value=0 7090.95 -4382.05 2993.49 -5850.36 415.872 14076.8 -7870.79 1990.42 -3156.44 -9322.84 -856.431 -10303.3 -2593.33 -5506.45 -9219.17
internal_weight=0 165 267 104 217 68 61 124 50 93 88 47 65 41 46 42
internal_count=432 165 267 104 217 68 61 124 50 93 88 47 65 41 46 42
is_linear=0
shrinkage=0.01


Tree=53
num_leaves=17
num_cat=0
split_feature=0 2 2 10 8 0 6 6 0 1 5 0 7 5 1 0
split_gain=1.31564e+14 4.62899e+13 2.4696e+13 1.38455e+13 1.27923e+13 1.05106e+13 9.16434e+12 8.81169e+12 8.26548e+12 7.1452e+12 4.42043e+12 1.58171e+12 1.20341e+12 8.16464e+11 6.16591e+11 4.66918e+11
threshold=5497.5000000000009 1.5000000000000002 1.5000000000000002 1.0000000180025095e-35 1.0000000180025095e-35 3969.0000000000005 1.0000000180025095e-35 1.0000000180025095e-35 3505.0000000000005 2.5000000000000004 1.0000000180025095e-35 4020.0000000000005 1.0000000180025095e-35 1.0000000180025095e-35 2.5000000000000004 4330.0000000000009
decision_type=2 2 2 2 2 2 2 2 2 2 2 2 2 2 2 2
left_child=2 4 3 8 6 -4 12 -3 13 -10 11 14 -2 -1 -5 -11
right_child=1 7 5 10 -6 -7 -8 -9 9 15 -12 -13 -14 -15 -16 -17
leaf_value=-7688.3343847656251 -4239.3322209821426 9670.9737022569443 -2887.5685714285714 -11712.381875000001 7783.7111698404942 6708.9210726562505 4935.5412290219911 17322.941383272057 -5497.2489650019897 1892.6947589843749 -4398.8688476562502 -7422.4877308238638 -811.8573378906251 -5117.4460923549113 -9573.7811104910725 -104.80943181818182
leaf_weight=30 21 27 21 26 36 25 27 34 27 25 20 22 20 21 28 22
leaf_count=30 21 27 21 26 36 25 27 34 27 25 20 22 20 21 28 22
internal_value=0 7020.04 -4338.23 -5725.75 2963.56 2327.91 411.713 13936 -3532.24 -1397.49 -8581.87 -9682.66 -2567.39 -6629.73 -10603.5 957.693
internal_weight=0 165 267 221 104 46 68 61 125 74 96 76 41 51 54 47
internal_count=432 165 267 221 104 46 68 61 125 74 96 76 41 51 54 47
is_linear=0
shrinkage=0.01


Tree=54
num_leaves=16
num_cat=0
split_feature=0 2 3 5 10 7 6 0 1 0 7 5 0 0 1
split_gain=1.28983e+14 6.60619e+13 1.76916e+13 1.93298e+13 1.43364e+13 1.34265e+13 1.89319e+13 1.12666e+13 8.7691e+12 9.04122e+12 6.294e+12 6.15209e+12 1.73744e+12 8.4862e+11 2.21931e+11
threshold=4530.0000000000009 1.5000000000000002 2.5000000000000004 1.0000000180025095e-35 1.0000000180025095e-35 1.0000000180025095e-35 1.0000000180025095e-35 6390.0000000000009 2.5000000000000004 3632.5000000000005 1.0000000180025095e-35 1.0000000180025095e-35 3135.0000000000005 3455.0000000000005 2.5000000000000004
decision_type=2 2 2 2 2 2 2 2 2 2 2 2 2 2 2
left_child=4 2 3 10 8 -3 -7 -5 -1 12 -2 13 -10 -6 -15
right_child=1 5 -4 7 11 6 -8 -9 9 -11 -12 -13 -14 14 -16
leaf_value=-7309.1559483924275 -6372.7605333395568 7076.5130346679689 9761.7729456676134 -324.76765569513492 -11704.888473011364 8721.0085605468757 21367.832511449353 9398.6597566105775 -5865.7177356770835 2161.2497654930321 -486.31662960737179 -3887.0139360119047 -2212.5581933195695 -10009.671859019887 -8589.2657102272733
leaf_weight=39 34 24 22 22 22 20 29 26 30 37 39 21 23 22 22
leaf_count=39 34 24 22 22 22 20 29 26 30 37 39 21 23 22 22
internal_value=0 5464.18 1512.86 13.0583 -5464.18 13204.4 16205.9 4942.09 -3348.46 -1632.16 -3227.95 -8601.28 -4280.38 -10101.3 -9299.47
internal_weight=0 216 143 121 216 73 49 48 129 90 73 87 53 66 44
internal_count=432 216 143 121 216 73 49 48 129 90 73 87 53 66 44
is_linear=0
shrinkage=0.01


Tree=55
num_leaves=17
num_cat=0
split_feature=0 2 6 8 0 5 6 6 10 0 9 5 7 0 0 0
split_gain=1.2659e+14 4.4498e+13 2.38845e+13 1.23105e+13 1.12368e+13 1.47958e+13 8.91377e+12 8.44338e+12 6.62794e+12 5.7142e+12 4.93686e+12 1.48655e+12 1.14664e+12 8.77743e+11 7.05098e+11 6.90803e+11
threshold=5497.5000000000009 1.5000000000000002 1.0000000180025095e-35 1.0000000180025095e-35 3645.0000000000005 1.0000000180025095e-35 1.0000000180025095e-35 1.0000000180025095e-35 1.0000000180025095e-35 4355.0000000000009 1.0000000180025095e-35 1.0000000180025095e-35 1.0000000180025095e-35 3182.5000000000005 3110.0000000000005 4310.0000000000009
decision_type=2 2 2 2 2 2 2 2 2 2 2 2 2 2 2 2
left_child=2 3 4 6 10 8 12 -3 15 -4 11 13 -2 -1 -12 -6
right_child=1 7 9 -5 5 -7 -8 -9 -10 -11 14 -13 -14 -15 -16 -17
leaf_value=-11973.758396739131 -4164.5547293526788 9491.9265769675931 -1021.1677514648437 7637.3942869737421 -1536.7185105096726 3050.5218887442129 4867.1199942129633 16982.269941406252 -8683.6583886718745 5789.2274267578123 -6763.2396132812501 -7322.6903072509767 -818.90785742187495 -9239.9807584635419 -4265.7596338829626 -4133.5544492187501
leaf_weight=23 21 27 28 36 21 27 27 34 36 22 20 20 20 24 26 20
leaf_count=23 21 27 28 36 21 27 27 34 36 22 20 20 20 24 26 20
internal_value=0 6886.08 -4255.44 2908.89 -5691.12 -3319.13 405.565 13666.9 -5552.65 1975.41 -7874.2 -9606.12 -2532.53 -10577.8 -5351.62 -2803.47
internal_weight=0 165 267 104 217 104 68 61 77 50 113 67 41 47 46 41
internal_count=432 165 267 104 217 104 68 61 77 50 113 67 41 47 46 41
is_linear=0
shrinkage=0.01


Tree=56
num_leaves=17
num_cat=0
split_feature=0 2 2 10 8 0 6 6 0 1 5 0 7 5 1 0
split_gain=1.24071e+14 4.36125e+13 2.35309e+13 1.31406e+13 1.20655e+13 9.91824e+12 8.73638e+12 8.27536e+12 7.81452e+12 6.80072e+12 4.11893e+12 1.49906e+12 1.12382e+12 7.87496e+11 6.02235e+11 4.64799e+11
threshold=5497.5000000000009 1.5000000000000002 1.5000000000000002 1.0000000180025095e-35 1.0000000180025095e-35 3969.0000000000005 1.0000000180025095e-35 1.0000000180025095e-35 3505.0000000000005 2.5000000000000004 1.0000000180025095e-35 4020.0000000000005 1.0000000180025095e-35 1.0000000180025095e-35 2.5000000000000004 4330.0000000000009
decision_type=2 2 2 2 2 2 2 2 2 2 2 2 2 2 2 2
left_child=2 4 3 8 6 -4 12 -3 13 -10 11 14 -2 -1 -5 -11
right_child=1 7 5 10 -6 -7 -8 -9 9 15 -12 -13 -14 -15 -16 -17
leaf_value=-7481.80670703125 -4122.9092271205354 9397.0069907407415 -2772.2879185267857 -11404.698461538463 7561.0203952874081 6549.8738095703129 4818.448567708333 16812.447225988049 -5354.3548184317133 1875.9396802734375 -4311.9286406250003 -7212.0156285511366 -810.71879492187497 -4956.9365634300593 -9291.1402204241076 -117.02813565340909
leaf_weight=30 21 27 21 26 36 25 27 34 27 25 20 22 20 21 28 22
leaf_count=30 21 27 21 26 36 25 27 34 27 25 20 22 20 21 28 22
internal_value=0 6817.22 -4212.89 -5567.29 2879.8 2294.1 401.509 13530.2 -3430.35 -1354.64 -8349.76 -9412.35 -2507.21 -6442.15 -10308.8 943.061
internal_weight=0 165 267 221 104 46 68 61 125 74 96 76 41 51 54 47
internal_count=432 165 267 221 104 46 68 61 125 74 96 76 41 51 54 47
is_linear=0
shrinkage=0.01


Tree=57
num_leaves=16
num_cat=0
split_feature=0 2 3 5 10 7 6 0 1 0 7 5 0 0 1
split_gain=1.21707e+14 6.23679e+13 1.71556e+13 1.85316e+13 1.35792e+13 1.31353e+13 1.82154e+13 1.08551e+13 8.46413e+12 8.50222e+12 5.98659e+12 5.79965e+12 1.64811e+12 8.12778e+11 2.10797e+11
threshold=4530.0000000000009 1.5000000000000002 2.5000000000000004 1.0000000180025095e-35 1.0000000180025095e-35 1.0000000180025095e-35 1.0000000180025095e-35 6390.0000000000009 2.5000000000000004 3632.5000000000005 1.0000000180025095e-35 1.0000000180025095e-35 3135.0000000000005 3455.0000000000005 2.5000000000000004
decision_type=2 2 2 2 2 2 2 2 2 2 2 2 2 2 2
left_child=4 2 3 10 8 -3 -7 -5 -1 12 -2 13 -10 -6 -15
right_child=1 5 -4 7 11 6 -8 -9 9 -11 -12 -13 -14 14 -16
leaf_value=-7139.9558310797274 -6248.7779660213691 6767.461423314413 9591.5559818892052 -351.92038618607955 -11386.732148437501 8455.4202109375001 20860.598266769935 9192.2924673227171 -5674.659701497395 2116.048564453125 -507.88558543669876 -3783.714520089286 -2116.6570539656932 -9724.8162890625008 -8340.4977982954551
leaf_weight=39 34 24 22 22 22 20 29 26 30 37 39 21 23 22 22
leaf_count=39 34 24 22 22 22 20 29 26 30 37 39 21 23 22 22
internal_value=0 5307.83 1468.57 -8.33581 -5307.83 12828.6 15797.3 4817.86 -3248.74 -1562.55 -3181.73 -8360.95 -4130.62 -9817.35 -9032.66
internal_weight=0 216 143 121 216 73 49 48 129 90 73 87 53 66 44
internal_count=432 216 143 121 216 73 49 48 129 90 73 87 53 66 44
is_linear=0
shrinkage=0.01


Tree=58
num_leaves=17
num_cat=0
split_feature=0 2 6 8 0 5 6 6 10 0 9 5 7 0 0 0
split_gain=1.19379e+14 4.19242e+13 2.28369e+13 1.1609e+13 1.06768e+13 1.42855e+13 8.49719e+12 7.92732e+12 6.21007e+12 5.30831e+12 4.70619e+12 1.37157e+12 1.07049e+12 8.63076e+11 6.66643e+11 6.60952e+11
threshold=5497.5000000000009 1.5000000000000002 1.0000000180025095e-35 1.0000000180025095e-35 3645.0000000000005 1.0000000180025095e-35 1.0000000180025095e-35 1.0000000180025095e-35 1.0000000180025095e-35 4355.0000000000009 1.0000000180025095e-35 1.0000000180025095e-35 1.0000000180025095e-35 3182.5000000000005 3110.0000000000005 4310.0000000000009
decision_type=2 2 2 2 2 2 2 2 2 2 2 2 2 2 2 2
left_child=2 3 4 6 10 8 12 -3 15 -4 11 13 -2 -1 -12 -6
right_child=1 7 9 -5 5 -7 -8 -9 -10 -11 14 -13 -14 -15 -16 -17
leaf_value=-11672.852561141304 -4049.8651155598959 9223.4841550925921 -927.98316441127236 7418.4260661824546 -1518.64330078125 3034.6756691261576 4751.714275173611 16481.312501077093 -8449.5286197916666 5636.082534401633 -6573.9258378906243 -7161.9173164062504 -817.21068164062501 -8962.0118408203125 -4145.5057590895431 -4058.7509023437497
leaf_weight=23 21 27 28 36 21 27 27 34 36 22 20 20 20 24 26 20
leaf_count=23 21 27 28 36 21 27 27 34 36 22 20 20 20 24 26 20
internal_value=0 6687.07 -4132.46 2826.62 -5536.3 -3224.17 395.66 13268.8 -5418.83 1960.21 -7664.28 -9355.26 -2472.96 -10288.6 -5201.34 -2757.72
internal_weight=0 165 267 104 217 104 68 61 77 50 113 67 41 47 46 41
internal_count=432 165 267 104 217 104 68 61 77 50 113 67 41 47 46 41
is_linear=0
shrinkage=0.01


Tree=59
num_leaves=17
num_cat=0
split_feature=0 2 2 10 8 0 6 6 0 1 5 0 7 5 1 0
split_gain=1.17003e+14 4.10899e+13 2.24226e+13 1.24724e+13 1.1378e+13 9.37615e+12 8.3281e+12 7.76956e+12 7.38858e+12 6.4724e+12 3.83659e+12 1.42099e+12 1.04919e+12 7.59662e+11 5.88301e+11 4.62324e+11
threshold=5497.5000000000009 1.5000000000000002 1.5000000000000002 1.0000000180025095e-35 1.0000000180025095e-35 4087.5000000000005 1.0000000180025095e-35 1.0000000180025095e-35 3505.0000000000005 2.5000000000000004 1.0000000180025095e-35 4020.0000000000005 1.0000000180025095e-35 1.0000000180025095e-35 2.5000000000000004 4330.0000000000009
decision_type=2 2 2 2 2 2 2 2 2 2 2 2 2 2 2 2
left_child=2 4 3 8 6 -4 12 -3 13 -10 11 14 -2 -1 -5 -11
right_child=1 7 5 10 -6 -7 -8 -9 9 15 -12 -13 -14 -15 -16 -17
leaf_value=-7281.0446354166661 -4009.3665239025299 9131.2492476851858 -2061.7589444986979 -11105.523545673077 7344.2418236626527 6976.2784858842333 4704.1970529513892 16316.499263556987 -5214.9852879050932 1858.9315531249999 -4227.070140625 -7007.3098153409092 -809.03862304687505 -4801.1971800595238 -9016.5594029017848 -128.72228515625
leaf_weight=30 21 27 24 26 36 22 27 34 27 25 20 22 20 21 28 22
leaf_count=30 21 27 24 26 36 22 27 34 27 25 20 22 20 21 28 22
internal_value=0 6620.2 -4091.14 -5413.25 2798.35 2260.78 391.704 13136.1 -3331.36 -1313.02 -8124.06 -9149.58 -2448.23 -6259.93 -10022.4 928.54
internal_weight=0 165 267 221 104 46 68 61 125 74 96 76 41 51 54 47
internal_count=432 165 267 221 104 46 68 61 125 74 96 76 41 51 54 47
is_linear=0
shrinkage=0.01


Tree=60
num_leaves=16
num_cat=0
split_feature=0 2 3 5 10 7 6 0 1 0 7 5 0 0 1
split_gain=1.14829e+14 5.88711e+13 1.66377e+13 1.77688e+13 1.28595e+13 1.2852e+13 1.75271e+13 1.04611e+13 8.17427e+12 8.00401e+12 5.69481e+12 5.47247e+12 1.56273e+12 7.78361e+11 2.00084e+11
threshold=4530.0000000000009 1.5000000000000002 2.5000000000000004 1.0000000180025095e-35 1.0000000180025095e-35 1.0000000180025095e-35 1.0000000180025095e-35 6390.0000000000009 2.5000000000000004 3632.5000000000005 1.0000000180025095e-35 1.0000000180025095e-35 3135.0000000000005 3455.0000000000005 2.5000000000000004
decision_type=2 2 2 2 2 2 2 2 2 2 2 2 2 2 2
left_child=4 2 3 10 8 -3 -7 -5 -1 12 -2 13 -10 -6 -15
right_child=1 5 -4 7 11 6 -8 -9 9 -11 -12 -13 -14 14 -16
leaf_value=-6975.878768028846 -6127.6293044819558 6467.1286751302086 9425.0263689630683 -378.13442382812502 -11077.288516512783 8197.2327753906247 20365.777020474135 8991.2494478665867 -5490.0157812500001 2074.3873619615711 -528.38888596754805 -3680.5169196428574 -2025.3945707370924 -9447.9358345170458 -8099.2518394886365
leaf_weight=39 34 24 22 22 22 20 29 26 30 37 39 21 23 22 22
leaf_count=39 34 24 22 22 22 20 29 26 30 37 39 21 23 22 22
internal_value=0 5155.65 1425.58 -28.8681 -5155.65 12462.5 15399 4696.95 -3151.87 -1494.8 -3136.25 -8126.77 -3986.5 -9541.49 -8773.59
internal_weight=0 216 143 121 216 73 49 48 129 90 73 87 53 66 44
internal_count=432 216 143 121 216 73 49 48 129 90 73 87 53 66 44
is_linear=0
shrinkage=0.01


Tree=61
num_leaves=17
num_cat=0
split_feature=0 2 6 1 0 5 6 6 10 0 9 5 0 0 0 9
split_gain=1.12576e+14 3.94991e+13 2.18376e+13 1.10056e+13 1.01538e+13 1.37998e+13 7.44072e+12 6.86069e+12 5.82007e+12 4.92146e+12 4.48541e+12 1.26348e+12 8.48664e+11 6.3383e+11 6.29828e+11 5.66469e+11
threshold=5497.5000000000009 1.5000000000000002 1.0000000180025095e-35 2.5000000000000004 3645.0000000000005 1.0000000180025095e-35 1.0000000180025095e-35 1.0000000180025095e-35 1.0000000180025095e-35 4355.0000000000009 1.0000000180025095e-35 1.0000000180025095e-35 3182.5000000000005 4310.0000000000009 3110.0000000000005 1.0000000180025095e-35
decision_type=2 2 2 2 2 2 2 2 2 2 2 2 2 2 2 2
left_child=2 3 4 -2 10 8 -3 15 13 -4 11 12 -1 -6 -12 -5
right_child=1 6 9 7 5 -7 -8 -9 -10 -11 14 -13 -14 -15 -16 -17
leaf_value=-11380.276052989131 -2746.9365480324072 8963.0908015046298 -836.06897600446439 729.99938281250002 -1498.4305938430061 3020.5648155381946 15994.642543658088 7942.7800870535712 -8222.0057964409734 5484.2854101562498 -6390.6602061157237 -7006.6846562499995 -8692.1652648925774 -3985.8765390625003 -4030.2454841496397 3055.3397065873578
leaf_weight=23 27 27 28 20 21 27 34 35 36 22 20 20 24 20 26 22
leaf_count=23 27 27 28 20 21 27 34 35 36 22 20 20 24 20 26 22
internal_value=0 6493.75 -4012.99 2746.61 -5385.77 -3130.98 12882.3 4672.92 -5288.01 1944.89 -7460.99 -9111.82 -10007.6 -2711.82 -5056.51 1948.03
internal_weight=0 165 267 104 217 104 61 77 77 50 113 67 47 41 46 42
internal_count=432 165 267 104 217 104 61 77 77 50 113 67 47 41 46 42
is_linear=0
shrinkage=0.01


Tree=62
num_leaves=16
num_cat=0
split_feature=0 2 3 5 7 6 10 0 1 0 7 5 0 0 1
split_gain=1.10381e+14 5.66852e+13 1.62009e+13 1.72653e+13 1.25814e+13 1.70156e+13 1.24305e+13 1.02481e+13 7.9873e+12 7.70691e+12 5.54218e+12 5.27388e+12 1.34634e+12 7.50883e+11 1.94867e+11
threshold=4530.0000000000009 1.5000000000000002 2.5000000000000004 1.0000000180025095e-35 1.0000000180025095e-35 1.0000000180025095e-35 1.0000000180025095e-35 6390.0000000000009 2.5000000000000004 3610.0000000000005 1.0000000180025095e-35 1.0000000180025095e-35 3135.0000000000005 3455.0000000000005 2.5000000000000004
decision_type=2 2 2 2 2 2 2 2 2 2 2 2 2 2 2
left_child=6 2 3 10 -3 -6 8 -5 -1 12 -2 13 -10 -8 -15
right_child=1 4 -4 7 5 -7 11 -9 9 -11 -12 -13 -14 14 -16
leaf_value=-6864.761249499199 -6054.6470850327441 6292.8185392252599 9288.3664772727279 -405.37193892045457 8034.2219912109376 20023.918362068966 -10873.200469748757 8868.1581764573311 -5365.086573567708 1899.620915965545 -530.94701046674686 -3611.1092540922623 -2063.7362002418154 -9276.0275390625011 -7945.042258522727
leaf_weight=39 34 24 22 22 20 29 22 26 30 39 39 21 21 22 22
leaf_count=39 34 24 22 22 20 29 22 26 30 39 39 21 21 22 22
internal_value=0 5054.81 1394.64 -40.5868 12224.7 15130.2 -5054.81 4617.79 -3084.74 -1446.73 -3103.63 -7975.95 -4005.71 -9364.76 -8610.53
internal_weight=0 216 143 121 73 49 216 48 129 90 73 87 51 66 44
internal_count=432 216 143 121 73 49 216 48 129 90 73 87 51 66 44
is_linear=0
shrinkage=0.01


Tree=63
num_leaves=17
num_cat=0
split_feature=0 2 6 8 0 5 6 6 10 0 9 5 7 0 0 0
split_gain=1.08316e+14 3.79698e+13 2.10669e+13 1.06865e+13 9.80553e+12 1.34394e+13 7.92291e+12 7.12469e+12 5.59717e+12 4.6492e+12 4.33215e+12 1.20222e+12 9.75189e+11 8.30406e+11 6.13511e+11 6.05767e+11
threshold=5497.5000000000009 1.5000000000000002 1.0000000180025095e-35 1.0000000180025095e-35 3645.0000000000005 1.0000000180025095e-35 1.0000000180025095e-35 1.0000000180025095e-35 1.0000000180025095e-35 4355.0000000000009 1.0000000180025095e-35 1.0000000180025095e-35 1.0000000180025095e-35 3182.5000000000005 4310.0000000000009 3110.0000000000005
decision_type=2 2 2 2 2 2 2 2 2 2 2 2 2 2 2 2
left_child=2 3 4 6 10 8 12 -3 14 -4 11 13 -2 -1 -6 -12
right_child=1 7 9 -5 5 -7 -8 -9 -10 -11 15 -13 -14 -15 -16 -17
leaf_value=-11177.990720108697 -3911.6261425781249 8798.2773741319452 -787.46317731584816 7101.3980732048885 -1477.4014136904764 3001.7956568287041 4569.71560474537 15678.881291360294 -8074.8231336805557 5355.5814257812499 -6269.3534316406249 -6892.8918710937505 -826.22441015624997 -8518.9526615397135 -3924.6522695312497 -3954.4657256610576
leaf_weight=23 21 27 28 36 21 27 27 34 36 22 20 20 20 24 20 26
leaf_count=23 21 27 28 36 21 27 27 34 36 22 20 20 20 24 20 26
internal_value=0 6369.69 -3936.33 2695.81 -5284.67 -3068.88 363.437 12633.4 -5197.56 1915.48 -7323.98 -8946.37 -2406.55 -9820.18 -2671.18 -4960.94
internal_weight=0 165 267 104 217 104 68 61 77 50 113 67 41 47 41 46
internal_count=432 165 267 104 217 104 68 61 77 50 113 67 41 47 41 46
is_linear=0
shrinkage=0.01


Tree=64
num_leaves=17
num_cat=0
split_feature=0 2 2 10 1 0 6 0 6 1 5 0 5 1 9 0
split_gain=1.06161e+14 3.72142e+13 2.07775e+13 1.1467e+13 1.05955e+13 8.52687e+12 6.98291e+12 6.73985e+12 6.60504e+12 5.98093e+12 3.39242e+12 1.30354e+12 7.2158e+11 5.72999e+11 5.57479e+11 4.65351e+11
